digraph Tree {
node [shape=box, style="filled, rounded", color="black", fontname="helvetica"] ;
edge [fontname="helvetica"] ;
0 [label="node #0\nhp <= 38.5\ngini = 0.944\nsamples = 855\nvalue = [18.0, 17.0, 83.0, 78.0, 54.0, 51.0, 53.0, 53.0, 61.0\n44.0, 50.0, 47.0, 30.0, 32.0, 32.0, 26.0, 26.0, 19.0\n17.0, 16.0, 16.0, 19.0, 6.0, 1.0, 4.0, 2.0]\nclass = 1", fillcolor="#fffffe"] ;
1 [label="node #1\nhp <= 22.5\ngini = 0.677\nsamples = 195\nvalue = [18, 17, 82, 70, 8, 0, 0, 0, 0, 0, 0, 0, 0, 0\n0, 0, 0, 0, 0, 0, 0, 0, 0, 0, 0, 0]\nclass = 1", fillcolor="#fdfaec"] ;
0 -> 1 [labeldistance=2.5, labelangle=45, headlabel="True"] ;
2 [label="node #2\nhp <= 12.5\ngini = 0.56\nsamples = 111\nvalue = [18.0, 17.0, 69.0, 7.0, 0.0, 0.0, 0.0, 0.0, 0.0, 0.0\n0.0, 0.0, 0.0, 0.0, 0.0, 0.0, 0.0, 0.0, 0.0, 0.0\n0.0, 0.0, 0.0, 0.0, 0.0, 0.0]\nclass = 1", fillcolor="#f1e492"] ;
1 -> 2 ;
3 [label="node #3\nrefl <= 8.5\ngini = 0.254\nsamples = 21\nvalue = [18, 2, 1, 0, 0, 0, 0, 0, 0, 0, 0, 0, 0, 0\n0, 0, 0, 0, 0, 0, 0, 0, 0, 0, 0, 0]\nclass = -1", fillcolor="#e99558"] ;
2 -> 3 ;
4 [label="node #4\nwill <= 5.5\ngini = 0.1\nsamples = 19\nvalue = [18, 1, 0, 0, 0, 0, 0, 0, 0, 0, 0, 0, 0, 0\n0, 0, 0, 0, 0, 0, 0, 0, 0, 0, 0, 0]\nclass = -1", fillcolor="#e68844"] ;
3 -> 4 ;
5 [label="node #5\ngini = 0.0\nsamples = 17\nvalue = [17, 0, 0, 0, 0, 0, 0, 0, 0, 0, 0, 0, 0, 0\n0, 0, 0, 0, 0, 0, 0, 0, 0, 0, 0, 0]\nclass = -1", fillcolor="#e58139"] ;
4 -> 5 ;
6 [label="node #6\ncon <= 0.5\ngini = 0.5\nsamples = 2\nvalue = [1, 1, 0, 0, 0, 0, 0, 0, 0, 0, 0, 0, 0, 0\n0, 0, 0, 0, 0, 0, 0, 0, 0, 0, 0, 0]\nclass = -1", fillcolor="#ffffff"] ;
4 -> 6 ;
7 [label="node #7\ngini = 0.0\nsamples = 1\nvalue = [1, 0, 0, 0, 0, 0, 0, 0, 0, 0, 0, 0, 0, 0\n0, 0, 0, 0, 0, 0, 0, 0, 0, 0, 0, 0]\nclass = -1", fillcolor="#e58139"] ;
6 -> 7 ;
8 [label="node #8\ngini = 0.0\nsamples = 1\nvalue = [0, 1, 0, 0, 0, 0, 0, 0, 0, 0, 0, 0, 0, 0\n0, 0, 0, 0, 0, 0, 0, 0, 0, 0, 0, 0]\nclass = 0", fillcolor="#e5a639"] ;
6 -> 8 ;
9 [label="node #9\nint <= -1.0\ngini = 0.5\nsamples = 2\nvalue = [0, 1, 1, 0, 0, 0, 0, 0, 0, 0, 0, 0, 0, 0\n0, 0, 0, 0, 0, 0, 0, 0, 0, 0, 0, 0]\nclass = 0", fillcolor="#ffffff"] ;
3 -> 9 ;
10 [label="node #10\ngini = 0.0\nsamples = 1\nvalue = [0, 0, 1, 0, 0, 0, 0, 0, 0, 0, 0, 0, 0, 0\n0, 0, 0, 0, 0, 0, 0, 0, 0, 0, 0, 0]\nclass = 1", fillcolor="#e5ce39"] ;
9 -> 10 ;
11 [label="node #11\ngini = 0.0\nsamples = 1\nvalue = [0, 1, 0, 0, 0, 0, 0, 0, 0, 0, 0, 0, 0, 0\n0, 0, 0, 0, 0, 0, 0, 0, 0, 0, 0, 0]\nclass = 0", fillcolor="#e5a639"] ;
9 -> 11 ;
12 [label="node #12\nhp <= 15.5\ngini = 0.395\nsamples = 90\nvalue = [0, 15, 68, 7, 0, 0, 0, 0, 0, 0, 0, 0, 0, 0\n0, 0, 0, 0, 0, 0, 0, 0, 0, 0, 0, 0]\nclass = 1", fillcolor="#eddc73"] ;
2 -> 12 ;
13 [label="node #13\nac <= 16.5\ngini = 0.469\nsamples = 16\nvalue = [0, 10, 6, 0, 0, 0, 0, 0, 0, 0, 0, 0, 0, 0\n0, 0, 0, 0, 0, 0, 0, 0, 0, 0, 0, 0]\nclass = 0", fillcolor="#f5dbb0"] ;
12 -> 13 ;
14 [label="node #14\ncon <= 3.5\ngini = 0.408\nsamples = 14\nvalue = [0, 10, 4, 0, 0, 0, 0, 0, 0, 0, 0, 0, 0, 0\n0, 0, 0, 0, 0, 0, 0, 0, 0, 0, 0, 0]\nclass = 0", fillcolor="#efca88"] ;
13 -> 14 ;
15 [label="node #15\ncha <= 0.5\ngini = 0.278\nsamples = 12\nvalue = [0, 10, 2, 0, 0, 0, 0, 0, 0, 0, 0, 0, 0, 0\n0, 0, 0, 0, 0, 0, 0, 0, 0, 0, 0, 0]\nclass = 0", fillcolor="#eab861"] ;
14 -> 15 ;
16 [label="node #16\ngini = 0.0\nsamples = 9\nvalue = [0, 9, 0, 0, 0, 0, 0, 0, 0, 0, 0, 0, 0, 0\n0, 0, 0, 0, 0, 0, 0, 0, 0, 0, 0, 0]\nclass = 0", fillcolor="#e5a639"] ;
15 -> 16 ;
17 [label="node #17\nfort <= 3.5\ngini = 0.444\nsamples = 3\nvalue = [0, 1, 2, 0, 0, 0, 0, 0, 0, 0, 0, 0, 0, 0\n0, 0, 0, 0, 0, 0, 0, 0, 0, 0, 0, 0]\nclass = 1", fillcolor="#f2e69c"] ;
15 -> 17 ;
18 [label="node #18\ngini = 0.0\nsamples = 1\nvalue = [0, 1, 0, 0, 0, 0, 0, 0, 0, 0, 0, 0, 0, 0\n0, 0, 0, 0, 0, 0, 0, 0, 0, 0, 0, 0]\nclass = 0", fillcolor="#e5a639"] ;
17 -> 18 ;
19 [label="node #19\ngini = 0.0\nsamples = 2\nvalue = [0, 0, 2, 0, 0, 0, 0, 0, 0, 0, 0, 0, 0, 0\n0, 0, 0, 0, 0, 0, 0, 0, 0, 0, 0, 0]\nclass = 1", fillcolor="#e5ce39"] ;
17 -> 19 ;
20 [label="node #20\ngini = 0.0\nsamples = 2\nvalue = [0, 0, 2, 0, 0, 0, 0, 0, 0, 0, 0, 0, 0, 0\n0, 0, 0, 0, 0, 0, 0, 0, 0, 0, 0, 0]\nclass = 1", fillcolor="#e5ce39"] ;
14 -> 20 ;
21 [label="node #21\ngini = 0.0\nsamples = 2\nvalue = [0, 0, 2, 0, 0, 0, 0, 0, 0, 0, 0, 0, 0, 0\n0, 0, 0, 0, 0, 0, 0, 0, 0, 0, 0, 0]\nclass = 1", fillcolor="#e5ce39"] ;
13 -> 21 ;
22 [label="node #22\nrefl <= 9.5\ngini = 0.285\nsamples = 74\nvalue = [0, 5, 62, 7, 0, 0, 0, 0, 0, 0, 0, 0, 0, 0\n0, 0, 0, 0, 0, 0, 0, 0, 0, 0, 0, 0]\nclass = 1", fillcolor="#ead75c"] ;
12 -> 22 ;
23 [label="node #23\nac <= 14.5\ngini = 0.17\nsamples = 65\nvalue = [0, 5, 59, 1, 0, 0, 0, 0, 0, 0, 0, 0, 0, 0\n0, 0, 0, 0, 0, 0, 0, 0, 0, 0, 0, 0]\nclass = 1", fillcolor="#e8d34d"] ;
22 -> 23 ;
24 [label="node #24\ngini = 0.0\nsamples = 2\nvalue = [0, 2, 0, 0, 0, 0, 0, 0, 0, 0, 0, 0, 0, 0\n0, 0, 0, 0, 0, 0, 0, 0, 0, 0, 0, 0]\nclass = 0", fillcolor="#e5a639"] ;
23 -> 24 ;
25 [label="node #25\nwill <= 4.5\ngini = 0.12\nsamples = 63\nvalue = [0, 3, 59, 1, 0, 0, 0, 0, 0, 0, 0, 0, 0, 0\n0, 0, 0, 0, 0, 0, 0, 0, 0, 0, 0, 0]\nclass = 1", fillcolor="#e7d146"] ;
23 -> 25 ;
26 [label="node #26\nwis <= 1.5\ngini = 0.337\nsamples = 14\nvalue = [0, 3, 11, 0, 0, 0, 0, 0, 0, 0, 0, 0, 0, 0\n0, 0, 0, 0, 0, 0, 0, 0, 0, 0, 0, 0]\nclass = 1", fillcolor="#ecdb6f"] ;
25 -> 26 ;
27 [label="node #27\ncha <= 0.5\ngini = 0.26\nsamples = 13\nvalue = [0, 2, 11, 0, 0, 0, 0, 0, 0, 0, 0, 0, 0, 0\n0, 0, 0, 0, 0, 0, 0, 0, 0, 0, 0, 0]\nclass = 1", fillcolor="#ead75d"] ;
26 -> 27 ;
28 [label="node #28\ngini = 0.0\nsamples = 8\nvalue = [0, 0, 8, 0, 0, 0, 0, 0, 0, 0, 0, 0, 0, 0\n0, 0, 0, 0, 0, 0, 0, 0, 0, 0, 0, 0]\nclass = 1", fillcolor="#e5ce39"] ;
27 -> 28 ;
29 [label="node #29\nac <= 16.5\ngini = 0.48\nsamples = 5\nvalue = [0, 2, 3, 0, 0, 0, 0, 0, 0, 0, 0, 0, 0, 0\n0, 0, 0, 0, 0, 0, 0, 0, 0, 0, 0, 0]\nclass = 1", fillcolor="#f6efbd"] ;
27 -> 29 ;
30 [label="node #30\nfort <= 7.5\ngini = 0.444\nsamples = 3\nvalue = [0, 2, 1, 0, 0, 0, 0, 0, 0, 0, 0, 0, 0, 0\n0, 0, 0, 0, 0, 0, 0, 0, 0, 0, 0, 0]\nclass = 0", fillcolor="#f2d29c"] ;
29 -> 30 ;
31 [label="node #31\ngini = 0.0\nsamples = 2\nvalue = [0, 2, 0, 0, 0, 0, 0, 0, 0, 0, 0, 0, 0, 0\n0, 0, 0, 0, 0, 0, 0, 0, 0, 0, 0, 0]\nclass = 0", fillcolor="#e5a639"] ;
30 -> 31 ;
32 [label="node #32\ngini = 0.0\nsamples = 1\nvalue = [0, 0, 1, 0, 0, 0, 0, 0, 0, 0, 0, 0, 0, 0\n0, 0, 0, 0, 0, 0, 0, 0, 0, 0, 0, 0]\nclass = 1", fillcolor="#e5ce39"] ;
30 -> 32 ;
33 [label="node #33\ngini = 0.0\nsamples = 2\nvalue = [0, 0, 2, 0, 0, 0, 0, 0, 0, 0, 0, 0, 0, 0\n0, 0, 0, 0, 0, 0, 0, 0, 0, 0, 0, 0]\nclass = 1", fillcolor="#e5ce39"] ;
29 -> 33 ;
34 [label="node #34\ngini = 0.0\nsamples = 1\nvalue = [0, 1, 0, 0, 0, 0, 0, 0, 0, 0, 0, 0, 0, 0\n0, 0, 0, 0, 0, 0, 0, 0, 0, 0, 0, 0]\nclass = 0", fillcolor="#e5a639"] ;
26 -> 34 ;
35 [label="node #35\nstr <= 3.5\ngini = 0.04\nsamples = 49\nvalue = [0.0, 0.0, 48.0, 1.0, 0.0, 0.0, 0.0, 0.0, 0.0, 0.0\n0.0, 0.0, 0.0, 0.0, 0.0, 0.0, 0.0, 0.0, 0.0, 0.0\n0.0, 0.0, 0.0, 0.0, 0.0, 0.0]\nclass = 1", fillcolor="#e6cf3d"] ;
25 -> 35 ;
36 [label="node #36\ngini = 0.0\nsamples = 47\nvalue = [0, 0, 47, 0, 0, 0, 0, 0, 0, 0, 0, 0, 0, 0\n0, 0, 0, 0, 0, 0, 0, 0, 0, 0, 0, 0]\nclass = 1", fillcolor="#e5ce39"] ;
35 -> 36 ;
37 [label="node #37\nint <= 0.5\ngini = 0.5\nsamples = 2\nvalue = [0, 0, 1, 1, 0, 0, 0, 0, 0, 0, 0, 0, 0, 0\n0, 0, 0, 0, 0, 0, 0, 0, 0, 0, 0, 0]\nclass = 1", fillcolor="#ffffff"] ;
35 -> 37 ;
38 [label="node #38\ngini = 0.0\nsamples = 1\nvalue = [0, 0, 1, 0, 0, 0, 0, 0, 0, 0, 0, 0, 0, 0\n0, 0, 0, 0, 0, 0, 0, 0, 0, 0, 0, 0]\nclass = 1", fillcolor="#e5ce39"] ;
37 -> 38 ;
39 [label="node #39\ngini = 0.0\nsamples = 1\nvalue = [0, 0, 0, 1, 0, 0, 0, 0, 0, 0, 0, 0, 0, 0\n0, 0, 0, 0, 0, 0, 0, 0, 0, 0, 0, 0]\nclass = 2", fillcolor="#d4e539"] ;
37 -> 39 ;
40 [label="node #40\ndex <= 3.5\ngini = 0.444\nsamples = 9\nvalue = [0, 0, 3, 6, 0, 0, 0, 0, 0, 0, 0, 0, 0, 0\n0, 0, 0, 0, 0, 0, 0, 0, 0, 0, 0, 0]\nclass = 2", fillcolor="#eaf29c"] ;
22 -> 40 ;
41 [label="node #41\nint <= -3.0\ngini = 0.375\nsamples = 4\nvalue = [0, 0, 3, 1, 0, 0, 0, 0, 0, 0, 0, 0, 0, 0\n0, 0, 0, 0, 0, 0, 0, 0, 0, 0, 0, 0]\nclass = 1", fillcolor="#eede7b"] ;
40 -> 41 ;
42 [label="node #42\ngini = 0.0\nsamples = 1\nvalue = [0, 0, 0, 1, 0, 0, 0, 0, 0, 0, 0, 0, 0, 0\n0, 0, 0, 0, 0, 0, 0, 0, 0, 0, 0, 0]\nclass = 2", fillcolor="#d4e539"] ;
41 -> 42 ;
43 [label="node #43\ngini = 0.0\nsamples = 3\nvalue = [0, 0, 3, 0, 0, 0, 0, 0, 0, 0, 0, 0, 0, 0\n0, 0, 0, 0, 0, 0, 0, 0, 0, 0, 0, 0]\nclass = 1", fillcolor="#e5ce39"] ;
41 -> 43 ;
44 [label="node #44\ngini = 0.0\nsamples = 5\nvalue = [0, 0, 0, 5, 0, 0, 0, 0, 0, 0, 0, 0, 0, 0\n0, 0, 0, 0, 0, 0, 0, 0, 0, 0, 0, 0]\nclass = 2", fillcolor="#d4e539"] ;
40 -> 44 ;
45 [label="node #45\nac <= 16.5\ngini = 0.404\nsamples = 84\nvalue = [0, 0, 13, 63, 8, 0, 0, 0, 0, 0, 0, 0, 0, 0\n0, 0, 0, 0, 0, 0, 0, 0, 0, 0, 0, 0]\nclass = 2", fillcolor="#e1ed74"] ;
1 -> 45 ;
46 [label="node #46\ngini = 0.0\nsamples = 12\nvalue = [0, 0, 12, 0, 0, 0, 0, 0, 0, 0, 0, 0, 0, 0\n0, 0, 0, 0, 0, 0, 0, 0, 0, 0, 0, 0]\nclass = 1", fillcolor="#e5ce39"] ;
45 -> 46 ;
47 [label="node #47\nrefl <= 10.5\ngini = 0.222\nsamples = 72\nvalue = [0, 0, 1, 63, 8, 0, 0, 0, 0, 0, 0, 0, 0, 0\n0, 0, 0, 0, 0, 0, 0, 0, 0, 0, 0, 0]\nclass = 2", fillcolor="#dae955"] ;
45 -> 47 ;
48 [label="node #48\nperception <= 11.5\ngini = 0.092\nsamples = 63\nvalue = [0, 0, 1, 60, 2, 0, 0, 0, 0, 0, 0, 0, 0, 0\n0, 0, 0, 0, 0, 0, 0, 0, 0, 0, 0, 0]\nclass = 2", fillcolor="#d6e643"] ;
47 -> 48 ;
49 [label="node #49\nfort <= 4.5\ngini = 0.063\nsamples = 62\nvalue = [0, 0, 1, 60, 1, 0, 0, 0, 0, 0, 0, 0, 0, 0\n0, 0, 0, 0, 0, 0, 0, 0, 0, 0, 0, 0]\nclass = 2", fillcolor="#d5e63f"] ;
48 -> 49 ;
50 [label="node #50\nrefl <= 8.5\ngini = 0.278\nsamples = 6\nvalue = [0, 0, 1, 5, 0, 0, 0, 0, 0, 0, 0, 0, 0, 0\n0, 0, 0, 0, 0, 0, 0, 0, 0, 0, 0, 0]\nclass = 2", fillcolor="#ddea61"] ;
49 -> 50 ;
51 [label="node #51\ngini = 0.0\nsamples = 5\nvalue = [0, 0, 0, 5, 0, 0, 0, 0, 0, 0, 0, 0, 0, 0\n0, 0, 0, 0, 0, 0, 0, 0, 0, 0, 0, 0]\nclass = 2", fillcolor="#d4e539"] ;
50 -> 51 ;
52 [label="node #52\ngini = 0.0\nsamples = 1\nvalue = [0, 0, 1, 0, 0, 0, 0, 0, 0, 0, 0, 0, 0, 0\n0, 0, 0, 0, 0, 0, 0, 0, 0, 0, 0, 0]\nclass = 1", fillcolor="#e5ce39"] ;
50 -> 52 ;
53 [label="node #53\nint <= -4.5\ngini = 0.035\nsamples = 56\nvalue = [0, 0, 0, 55, 1, 0, 0, 0, 0, 0, 0, 0, 0, 0\n0, 0, 0, 0, 0, 0, 0, 0, 0, 0, 0, 0]\nclass = 2", fillcolor="#d5e53d"] ;
49 -> 53 ;
54 [label="node #54\nperception <= 8.5\ngini = 0.245\nsamples = 7\nvalue = [0, 0, 0, 6, 1, 0, 0, 0, 0, 0, 0, 0, 0, 0\n0, 0, 0, 0, 0, 0, 0, 0, 0, 0, 0, 0]\nclass = 2", fillcolor="#dbe95a"] ;
53 -> 54 ;
55 [label="node #55\ngini = 0.0\nsamples = 5\nvalue = [0, 0, 0, 5, 0, 0, 0, 0, 0, 0, 0, 0, 0, 0\n0, 0, 0, 0, 0, 0, 0, 0, 0, 0, 0, 0]\nclass = 2", fillcolor="#d4e539"] ;
54 -> 55 ;
56 [label="node #56\nrefl <= 9.5\ngini = 0.5\nsamples = 2\nvalue = [0, 0, 0, 1, 1, 0, 0, 0, 0, 0, 0, 0, 0, 0\n0, 0, 0, 0, 0, 0, 0, 0, 0, 0, 0, 0]\nclass = 2", fillcolor="#ffffff"] ;
54 -> 56 ;
57 [label="node #57\ngini = 0.0\nsamples = 1\nvalue = [0, 0, 0, 0, 1, 0, 0, 0, 0, 0, 0, 0, 0, 0\n0, 0, 0, 0, 0, 0, 0, 0, 0, 0, 0, 0]\nclass = 3", fillcolor="#ace539"] ;
56 -> 57 ;
58 [label="node #58\ngini = 0.0\nsamples = 1\nvalue = [0, 0, 0, 1, 0, 0, 0, 0, 0, 0, 0, 0, 0, 0\n0, 0, 0, 0, 0, 0, 0, 0, 0, 0, 0, 0]\nclass = 2", fillcolor="#d4e539"] ;
56 -> 58 ;
59 [label="node #59\ngini = 0.0\nsamples = 49\nvalue = [0, 0, 0, 49, 0, 0, 0, 0, 0, 0, 0, 0, 0, 0\n0, 0, 0, 0, 0, 0, 0, 0, 0, 0, 0, 0]\nclass = 2", fillcolor="#d4e539"] ;
53 -> 59 ;
60 [label="node #60\ngini = 0.0\nsamples = 1\nvalue = [0, 0, 0, 0, 1, 0, 0, 0, 0, 0, 0, 0, 0, 0\n0, 0, 0, 0, 0, 0, 0, 0, 0, 0, 0, 0]\nclass = 3", fillcolor="#ace539"] ;
48 -> 60 ;
61 [label="node #61\nac <= 18.5\ngini = 0.444\nsamples = 9\nvalue = [0, 0, 0, 3, 6, 0, 0, 0, 0, 0, 0, 0, 0, 0\n0, 0, 0, 0, 0, 0, 0, 0, 0, 0, 0, 0]\nclass = 3", fillcolor="#d6f29c"] ;
47 -> 61 ;
62 [label="node #62\nrefl <= 11.5\ngini = 0.375\nsamples = 4\nvalue = [0, 0, 0, 3, 1, 0, 0, 0, 0, 0, 0, 0, 0, 0\n0, 0, 0, 0, 0, 0, 0, 0, 0, 0, 0, 0]\nclass = 2", fillcolor="#e2ee7b"] ;
61 -> 62 ;
63 [label="node #63\ngini = 0.0\nsamples = 3\nvalue = [0, 0, 0, 3, 0, 0, 0, 0, 0, 0, 0, 0, 0, 0\n0, 0, 0, 0, 0, 0, 0, 0, 0, 0, 0, 0]\nclass = 2", fillcolor="#d4e539"] ;
62 -> 63 ;
64 [label="node #64\ngini = 0.0\nsamples = 1\nvalue = [0, 0, 0, 0, 1, 0, 0, 0, 0, 0, 0, 0, 0, 0\n0, 0, 0, 0, 0, 0, 0, 0, 0, 0, 0, 0]\nclass = 3", fillcolor="#ace539"] ;
62 -> 64 ;
65 [label="node #65\ngini = 0.0\nsamples = 5\nvalue = [0, 0, 0, 0, 5, 0, 0, 0, 0, 0, 0, 0, 0, 0\n0, 0, 0, 0, 0, 0, 0, 0, 0, 0, 0, 0]\nclass = 3", fillcolor="#ace539"] ;
61 -> 65 ;
66 [label="node #66\nac <= 24.5\ngini = 0.939\nsamples = 660\nvalue = [0.0, 0.0, 1.0, 8.0, 46.0, 51.0, 53.0, 53.0, 61.0\n44.0, 50.0, 47.0, 30.0, 32.0, 32.0, 26.0, 26.0, 19.0\n17.0, 16.0, 16.0, 19.0, 6.0, 1.0, 4.0, 2.0]\nclass = 7", fillcolor="#fcfffd"] ;
0 -> 66 [labeldistance=2.5, labelangle=-45, headlabel="False"] ;
67 [label="node #67\nac <= 22.5\ngini = 0.806\nsamples = 234\nvalue = [0, 0, 1, 8, 46, 51, 53, 52, 18, 4, 0, 0, 0\n0, 1, 0, 0, 0, 0, 0, 0, 0, 0, 0, 0, 0]\nclass = 5", fillcolor="#fefffe"] ;
66 -> 67 ;
68 [label="node #68\nac <= 19.5\ngini = 0.749\nsamples = 167\nvalue = [0.0, 0.0, 1.0, 8.0, 46.0, 50.0, 47.0, 8.0, 6.0, 0.0\n0.0, 0.0, 0.0, 0.0, 1.0, 0.0, 0.0, 0.0, 0.0, 0.0\n0.0, 0.0, 0.0, 0.0, 0.0, 0.0]\nclass = 4", fillcolor="#fcfefa"] ;
67 -> 68 ;
69 [label="node #69\nac <= 17.5\ngini = 0.561\nsamples = 68\nvalue = [0, 0, 1, 8, 43, 10, 1, 2, 3, 0, 0, 0, 0, 0\n0, 0, 0, 0, 0, 0, 0, 0, 0, 0, 0, 0]\nclass = 3", fillcolor="#d0f08e"] ;
68 -> 69 ;
70 [label="node #70\nint <= -3.0\ngini = 0.776\nsamples = 19\nvalue = [0, 0, 1, 7, 4, 1, 1, 2, 3, 0, 0, 0, 0, 0\n0, 0, 0, 0, 0, 0, 0, 0, 0, 0, 0, 0]\nclass = 2", fillcolor="#f6fad7"] ;
69 -> 70 ;
71 [label="node #71\nhp <= 161.0\ngini = 0.816\nsamples = 14\nvalue = [0, 0, 1, 2, 4, 1, 1, 2, 3, 0, 0, 0, 0, 0\n0, 0, 0, 0, 0, 0, 0, 0, 0, 0, 0, 0]\nclass = 3", fillcolor="#f7fded"] ;
70 -> 71 ;
72 [label="node #72\nfort <= 15.5\ngini = 0.777\nsamples = 11\nvalue = [0, 0, 1, 2, 4, 1, 1, 2, 0, 0, 0, 0, 0, 0\n0, 0, 0, 0, 0, 0, 0, 0, 0, 0, 0, 0]\nclass = 3", fillcolor="#edf9d3"] ;
71 -> 72 ;
73 [label="node #73\nwis <= 0.5\ngini = 0.716\nsamples = 9\nvalue = [0, 0, 1, 2, 4, 1, 1, 0, 0, 0, 0, 0, 0, 0\n0, 0, 0, 0, 0, 0, 0, 0, 0, 0, 0, 0]\nclass = 3", fillcolor="#e7f8c6"] ;
72 -> 73 ;
74 [label="node #74\nfort <= 11.5\ngini = 0.778\nsamples = 6\nvalue = [0, 0, 1, 2, 1, 1, 1, 0, 0, 0, 0, 0, 0, 0\n0, 0, 0, 0, 0, 0, 0, 0, 0, 0, 0, 0]\nclass = 2", fillcolor="#f6fad7"] ;
73 -> 74 ;
75 [label="node #75\nfort <= 8.5\ngini = 0.444\nsamples = 3\nvalue = [0, 0, 1, 2, 0, 0, 0, 0, 0, 0, 0, 0, 0, 0\n0, 0, 0, 0, 0, 0, 0, 0, 0, 0, 0, 0]\nclass = 2", fillcolor="#eaf29c"] ;
74 -> 75 ;
76 [label="node #76\ngini = 0.0\nsamples = 1\nvalue = [0, 0, 1, 0, 0, 0, 0, 0, 0, 0, 0, 0, 0, 0\n0, 0, 0, 0, 0, 0, 0, 0, 0, 0, 0, 0]\nclass = 1", fillcolor="#e5ce39"] ;
75 -> 76 ;
77 [label="node #77\ngini = 0.0\nsamples = 2\nvalue = [0, 0, 0, 2, 0, 0, 0, 0, 0, 0, 0, 0, 0, 0\n0, 0, 0, 0, 0, 0, 0, 0, 0, 0, 0, 0]\nclass = 2", fillcolor="#d4e539"] ;
75 -> 77 ;
78 [label="node #78\nhp <= 75.0\ngini = 0.667\nsamples = 3\nvalue = [0, 0, 0, 0, 1, 1, 1, 0, 0, 0, 0, 0, 0, 0\n0, 0, 0, 0, 0, 0, 0, 0, 0, 0, 0, 0]\nclass = 3", fillcolor="#ffffff"] ;
74 -> 78 ;
79 [label="node #79\ngini = 0.0\nsamples = 1\nvalue = [0, 0, 0, 0, 0, 1, 0, 0, 0, 0, 0, 0, 0, 0\n0, 0, 0, 0, 0, 0, 0, 0, 0, 0, 0, 0]\nclass = 4", fillcolor="#83e539"] ;
78 -> 79 ;
80 [label="node #80\nhp <= 120.0\ngini = 0.5\nsamples = 2\nvalue = [0, 0, 0, 0, 1, 0, 1, 0, 0, 0, 0, 0, 0, 0\n0, 0, 0, 0, 0, 0, 0, 0, 0, 0, 0, 0]\nclass = 3", fillcolor="#ffffff"] ;
78 -> 80 ;
81 [label="node #81\ngini = 0.0\nsamples = 1\nvalue = [0, 0, 0, 0, 1, 0, 0, 0, 0, 0, 0, 0, 0, 0\n0, 0, 0, 0, 0, 0, 0, 0, 0, 0, 0, 0]\nclass = 3", fillcolor="#ace539"] ;
80 -> 81 ;
82 [label="node #82\ngini = 0.0\nsamples = 1\nvalue = [0, 0, 0, 0, 0, 0, 1, 0, 0, 0, 0, 0, 0, 0\n0, 0, 0, 0, 0, 0, 0, 0, 0, 0, 0, 0]\nclass = 5", fillcolor="#5be539"] ;
80 -> 82 ;
83 [label="node #83\ngini = 0.0\nsamples = 3\nvalue = [0, 0, 0, 0, 3, 0, 0, 0, 0, 0, 0, 0, 0, 0\n0, 0, 0, 0, 0, 0, 0, 0, 0, 0, 0, 0]\nclass = 3", fillcolor="#ace539"] ;
73 -> 83 ;
84 [label="node #84\ngini = 0.0\nsamples = 2\nvalue = [0, 0, 0, 0, 0, 0, 0, 2, 0, 0, 0, 0, 0, 0\n0, 0, 0, 0, 0, 0, 0, 0, 0, 0, 0, 0]\nclass = 6", fillcolor="#39e53c"] ;
72 -> 84 ;
85 [label="node #85\ngini = 0.0\nsamples = 3\nvalue = [0, 0, 0, 0, 0, 0, 0, 0, 3, 0, 0, 0, 0, 0\n0, 0, 0, 0, 0, 0, 0, 0, 0, 0, 0, 0]\nclass = 7", fillcolor="#39e564"] ;
71 -> 85 ;
86 [label="node #86\ngini = 0.0\nsamples = 5\nvalue = [0, 0, 0, 5, 0, 0, 0, 0, 0, 0, 0, 0, 0, 0\n0, 0, 0, 0, 0, 0, 0, 0, 0, 0, 0, 0]\nclass = 2", fillcolor="#d4e539"] ;
70 -> 86 ;
87 [label="node #87\nhp <= 69.0\ngini = 0.332\nsamples = 49\nvalue = [0.0, 0.0, 0.0, 1.0, 39.0, 9.0, 0.0, 0.0, 0.0, 0.0\n0.0, 0.0, 0.0, 0.0, 0.0, 0.0, 0.0, 0.0, 0.0, 0.0\n0.0, 0.0, 0.0, 0.0, 0.0, 0.0]\nclass = 3", fillcolor="#c1ec6a"] ;
69 -> 87 ;
88 [label="node #88\nfort <= 11.5\ngini = 0.236\nsamples = 45\nvalue = [0, 0, 0, 1, 39, 5, 0, 0, 0, 0, 0, 0, 0, 0\n0, 0, 0, 0, 0, 0, 0, 0, 0, 0, 0, 0]\nclass = 3", fillcolor="#b8e957"] ;
87 -> 88 ;
89 [label="node #89\nrefl <= 5.5\ngini = 0.141\nsamples = 40\nvalue = [0, 0, 0, 1, 37, 2, 0, 0, 0, 0, 0, 0, 0, 0\n0, 0, 0, 0, 0, 0, 0, 0, 0, 0, 0, 0]\nclass = 3", fillcolor="#b3e749"] ;
88 -> 89 ;
90 [label="node #90\ngini = 0.0\nsamples = 1\nvalue = [0, 0, 0, 1, 0, 0, 0, 0, 0, 0, 0, 0, 0, 0\n0, 0, 0, 0, 0, 0, 0, 0, 0, 0, 0, 0]\nclass = 2", fillcolor="#d4e539"] ;
89 -> 90 ;
91 [label="node #91\nstr <= -3.5\ngini = 0.097\nsamples = 39\nvalue = [0, 0, 0, 0, 37, 2, 0, 0, 0, 0, 0, 0, 0, 0\n0, 0, 0, 0, 0, 0, 0, 0, 0, 0, 0, 0]\nclass = 3", fillcolor="#b0e644"] ;
89 -> 91 ;
92 [label="node #92\ngini = 0.0\nsamples = 1\nvalue = [0, 0, 0, 0, 0, 1, 0, 0, 0, 0, 0, 0, 0, 0\n0, 0, 0, 0, 0, 0, 0, 0, 0, 0, 0, 0]\nclass = 4", fillcolor="#83e539"] ;
91 -> 92 ;
93 [label="node #93\nrefl <= 12.5\ngini = 0.051\nsamples = 38\nvalue = [0, 0, 0, 0, 37, 1, 0, 0, 0, 0, 0, 0, 0, 0\n0, 0, 0, 0, 0, 0, 0, 0, 0, 0, 0, 0]\nclass = 3", fillcolor="#aee63e"] ;
91 -> 93 ;
94 [label="node #94\ngini = 0.0\nsamples = 37\nvalue = [0, 0, 0, 0, 37, 0, 0, 0, 0, 0, 0, 0, 0, 0\n0, 0, 0, 0, 0, 0, 0, 0, 0, 0, 0, 0]\nclass = 3", fillcolor="#ace539"] ;
93 -> 94 ;
95 [label="node #95\ngini = 0.0\nsamples = 1\nvalue = [0, 0, 0, 0, 0, 1, 0, 0, 0, 0, 0, 0, 0, 0\n0, 0, 0, 0, 0, 0, 0, 0, 0, 0, 0, 0]\nclass = 4", fillcolor="#83e539"] ;
93 -> 95 ;
96 [label="node #96\ncha <= -3.0\ngini = 0.48\nsamples = 5\nvalue = [0, 0, 0, 0, 2, 3, 0, 0, 0, 0, 0, 0, 0, 0\n0, 0, 0, 0, 0, 0, 0, 0, 0, 0, 0, 0]\nclass = 4", fillcolor="#d6f6bd"] ;
88 -> 96 ;
97 [label="node #97\ngini = 0.0\nsamples = 2\nvalue = [0, 0, 0, 0, 0, 2, 0, 0, 0, 0, 0, 0, 0, 0\n0, 0, 0, 0, 0, 0, 0, 0, 0, 0, 0, 0]\nclass = 4", fillcolor="#83e539"] ;
96 -> 97 ;
98 [label="node #98\nrefl <= 9.5\ngini = 0.444\nsamples = 3\nvalue = [0, 0, 0, 0, 2, 1, 0, 0, 0, 0, 0, 0, 0, 0\n0, 0, 0, 0, 0, 0, 0, 0, 0, 0, 0, 0]\nclass = 3", fillcolor="#d6f29c"] ;
96 -> 98 ;
99 [label="node #99\ngini = 0.0\nsamples = 2\nvalue = [0, 0, 0, 0, 2, 0, 0, 0, 0, 0, 0, 0, 0, 0\n0, 0, 0, 0, 0, 0, 0, 0, 0, 0, 0, 0]\nclass = 3", fillcolor="#ace539"] ;
98 -> 99 ;
100 [label="node #100\ngini = 0.0\nsamples = 1\nvalue = [0, 0, 0, 0, 0, 1, 0, 0, 0, 0, 0, 0, 0, 0\n0, 0, 0, 0, 0, 0, 0, 0, 0, 0, 0, 0]\nclass = 4", fillcolor="#83e539"] ;
98 -> 100 ;
101 [label="node #101\ngini = 0.0\nsamples = 4\nvalue = [0, 0, 0, 0, 0, 4, 0, 0, 0, 0, 0, 0, 0, 0\n0, 0, 0, 0, 0, 0, 0, 0, 0, 0, 0, 0]\nclass = 4", fillcolor="#83e539"] ;
87 -> 101 ;
102 [label="node #102\nhp <= 76.0\ngini = 0.615\nsamples = 99\nvalue = [0, 0, 0, 0, 3, 40, 46, 6, 3, 0, 0, 0, 0, 0\n1, 0, 0, 0, 0, 0, 0, 0, 0, 0, 0, 0]\nclass = 5", fillcolor="#eefceb"] ;
68 -> 102 ;
103 [label="node #103\ncha <= -2.5\ngini = 0.524\nsamples = 67\nvalue = [0, 0, 0, 0, 3, 40, 23, 1, 0, 0, 0, 0, 0, 0\n0, 0, 0, 0, 0, 0, 0, 0, 0, 0, 0, 0]\nclass = 4", fillcolor="#cff5b3"] ;
102 -> 103 ;
104 [label="node #104\nfort <= 12.0\ngini = 0.133\nsamples = 14\nvalue = [0, 0, 0, 0, 0, 1, 13, 0, 0, 0, 0, 0, 0, 0\n0, 0, 0, 0, 0, 0, 0, 0, 0, 0, 0, 0]\nclass = 5", fillcolor="#68e748"] ;
103 -> 104 ;
105 [label="node #105\ngini = 0.0\nsamples = 1\nvalue = [0, 0, 0, 0, 0, 1, 0, 0, 0, 0, 0, 0, 0, 0\n0, 0, 0, 0, 0, 0, 0, 0, 0, 0, 0, 0]\nclass = 4", fillcolor="#83e539"] ;
104 -> 105 ;
106 [label="node #106\ngini = 0.0\nsamples = 13\nvalue = [0, 0, 0, 0, 0, 0, 13, 0, 0, 0, 0, 0, 0, 0\n0, 0, 0, 0, 0, 0, 0, 0, 0, 0, 0, 0]\nclass = 5", fillcolor="#5be539"] ;
104 -> 106 ;
107 [label="node #107\nac <= 21.5\ngini = 0.419\nsamples = 53\nvalue = [0, 0, 0, 0, 3, 39, 10, 1, 0, 0, 0, 0, 0, 0\n0, 0, 0, 0, 0, 0, 0, 0, 0, 0, 0, 0]\nclass = 4", fillcolor="#abed79"] ;
103 -> 107 ;
108 [label="node #108\nrefl <= 14.5\ngini = 0.221\nsamples = 41\nvalue = [0, 0, 0, 0, 3, 36, 2, 0, 0, 0, 0, 0, 0, 0\n0, 0, 0, 0, 0, 0, 0, 0, 0, 0, 0, 0]\nclass = 4", fillcolor="#93e853"] ;
107 -> 108 ;
109 [label="node #109\nhp <= 42.5\ngini = 0.142\nsamples = 39\nvalue = [0, 0, 0, 0, 3, 36, 0, 0, 0, 0, 0, 0, 0, 0\n0, 0, 0, 0, 0, 0, 0, 0, 0, 0, 0, 0]\nclass = 4", fillcolor="#8de749"] ;
108 -> 109 ;
110 [label="node #110\nac <= 20.5\ngini = 0.48\nsamples = 5\nvalue = [0, 0, 0, 0, 3, 2, 0, 0, 0, 0, 0, 0, 0, 0\n0, 0, 0, 0, 0, 0, 0, 0, 0, 0, 0, 0]\nclass = 3", fillcolor="#e3f6bd"] ;
109 -> 110 ;
111 [label="node #111\ngini = 0.0\nsamples = 3\nvalue = [0, 0, 0, 0, 3, 0, 0, 0, 0, 0, 0, 0, 0, 0\n0, 0, 0, 0, 0, 0, 0, 0, 0, 0, 0, 0]\nclass = 3", fillcolor="#ace539"] ;
110 -> 111 ;
112 [label="node #112\ngini = 0.0\nsamples = 2\nvalue = [0, 0, 0, 0, 0, 2, 0, 0, 0, 0, 0, 0, 0, 0\n0, 0, 0, 0, 0, 0, 0, 0, 0, 0, 0, 0]\nclass = 4", fillcolor="#83e539"] ;
110 -> 112 ;
113 [label="node #113\ngini = 0.0\nsamples = 34\nvalue = [0, 0, 0, 0, 0, 34, 0, 0, 0, 0, 0, 0, 0, 0\n0, 0, 0, 0, 0, 0, 0, 0, 0, 0, 0, 0]\nclass = 4", fillcolor="#83e539"] ;
109 -> 113 ;
114 [label="node #114\ngini = 0.0\nsamples = 2\nvalue = [0, 0, 0, 0, 0, 0, 2, 0, 0, 0, 0, 0, 0, 0\n0, 0, 0, 0, 0, 0, 0, 0, 0, 0, 0, 0]\nclass = 5", fillcolor="#5be539"] ;
108 -> 114 ;
115 [label="node #115\ncon <= 1.0\ngini = 0.486\nsamples = 12\nvalue = [0, 0, 0, 0, 0, 3, 8, 1, 0, 0, 0, 0, 0, 0\n0, 0, 0, 0, 0, 0, 0, 0, 0, 0, 0, 0]\nclass = 5", fillcolor="#a4f191"] ;
107 -> 115 ;
116 [label="node #116\ngini = 0.0\nsamples = 1\nvalue = [0, 0, 0, 0, 0, 0, 0, 1, 0, 0, 0, 0, 0, 0\n0, 0, 0, 0, 0, 0, 0, 0, 0, 0, 0, 0]\nclass = 6", fillcolor="#39e53c"] ;
115 -> 116 ;
117 [label="node #117\nrefl <= 13.0\ngini = 0.397\nsamples = 11\nvalue = [0, 0, 0, 0, 0, 3, 8, 0, 0, 0, 0, 0, 0, 0\n0, 0, 0, 0, 0, 0, 0, 0, 0, 0, 0, 0]\nclass = 5", fillcolor="#98ef83"] ;
115 -> 117 ;
118 [label="node #118\nhp <= 71.5\ngini = 0.5\nsamples = 6\nvalue = [0, 0, 0, 0, 0, 3, 3, 0, 0, 0, 0, 0, 0, 0\n0, 0, 0, 0, 0, 0, 0, 0, 0, 0, 0, 0]\nclass = 4", fillcolor="#ffffff"] ;
117 -> 118 ;
119 [label="node #119\nfort <= 14.5\ngini = 0.375\nsamples = 4\nvalue = [0, 0, 0, 0, 0, 3, 1, 0, 0, 0, 0, 0, 0, 0\n0, 0, 0, 0, 0, 0, 0, 0, 0, 0, 0, 0]\nclass = 4", fillcolor="#acee7b"] ;
118 -> 119 ;
120 [label="node #120\ngini = 0.0\nsamples = 3\nvalue = [0, 0, 0, 0, 0, 3, 0, 0, 0, 0, 0, 0, 0, 0\n0, 0, 0, 0, 0, 0, 0, 0, 0, 0, 0, 0]\nclass = 4", fillcolor="#83e539"] ;
119 -> 120 ;
121 [label="node #121\ngini = 0.0\nsamples = 1\nvalue = [0, 0, 0, 0, 0, 0, 1, 0, 0, 0, 0, 0, 0, 0\n0, 0, 0, 0, 0, 0, 0, 0, 0, 0, 0, 0]\nclass = 5", fillcolor="#5be539"] ;
119 -> 121 ;
122 [label="node #122\ngini = 0.0\nsamples = 2\nvalue = [0, 0, 0, 0, 0, 0, 2, 0, 0, 0, 0, 0, 0, 0\n0, 0, 0, 0, 0, 0, 0, 0, 0, 0, 0, 0]\nclass = 5", fillcolor="#5be539"] ;
118 -> 122 ;
123 [label="node #123\ngini = 0.0\nsamples = 5\nvalue = [0, 0, 0, 0, 0, 0, 5, 0, 0, 0, 0, 0, 0, 0\n0, 0, 0, 0, 0, 0, 0, 0, 0, 0, 0, 0]\nclass = 5", fillcolor="#5be539"] ;
117 -> 123 ;
124 [label="node #124\nhp <= 102.5\ngini = 0.449\nsamples = 32\nvalue = [0, 0, 0, 0, 0, 0, 23, 5, 3, 0, 0, 0, 0, 0\n1, 0, 0, 0, 0, 0, 0, 0, 0, 0, 0, 0]\nclass = 5", fillcolor="#92ee7b"] ;
102 -> 124 ;
125 [label="node #125\nfort <= 17.0\ngini = 0.165\nsamples = 22\nvalue = [0, 0, 0, 0, 0, 0, 20, 0, 2, 0, 0, 0, 0, 0\n0, 0, 0, 0, 0, 0, 0, 0, 0, 0, 0, 0]\nclass = 5", fillcolor="#6be84d"] ;
124 -> 125 ;
126 [label="node #126\nstr <= -2.5\ngini = 0.091\nsamples = 21\nvalue = [0, 0, 0, 0, 0, 0, 20, 0, 1, 0, 0, 0, 0, 0\n0, 0, 0, 0, 0, 0, 0, 0, 0, 0, 0, 0]\nclass = 5", fillcolor="#63e643"] ;
125 -> 126 ;
127 [label="node #127\ngini = 0.0\nsamples = 1\nvalue = [0, 0, 0, 0, 0, 0, 0, 0, 1, 0, 0, 0, 0, 0\n0, 0, 0, 0, 0, 0, 0, 0, 0, 0, 0, 0]\nclass = 7", fillcolor="#39e564"] ;
126 -> 127 ;
128 [label="node #128\ngini = 0.0\nsamples = 20\nvalue = [0, 0, 0, 0, 0, 0, 20, 0, 0, 0, 0, 0, 0, 0\n0, 0, 0, 0, 0, 0, 0, 0, 0, 0, 0, 0]\nclass = 5", fillcolor="#5be539"] ;
126 -> 128 ;
129 [label="node #129\ngini = 0.0\nsamples = 1\nvalue = [0, 0, 0, 0, 0, 0, 0, 0, 1, 0, 0, 0, 0, 0\n0, 0, 0, 0, 0, 0, 0, 0, 0, 0, 0, 0]\nclass = 7", fillcolor="#39e564"] ;
125 -> 129 ;
130 [label="node #130\nac <= 21.5\ngini = 0.64\nsamples = 10\nvalue = [0, 0, 0, 0, 0, 0, 3, 5, 1, 0, 0, 0, 0, 0\n1, 0, 0, 0, 0, 0, 0, 0, 0, 0, 0, 0]\nclass = 6", fillcolor="#c6f8c7"] ;
124 -> 130 ;
131 [label="node #131\nwill <= 11.0\ngini = 0.56\nsamples = 5\nvalue = [0, 0, 0, 0, 0, 0, 3, 1, 0, 0, 0, 0, 0, 0\n1, 0, 0, 0, 0, 0, 0, 0, 0, 0, 0, 0]\nclass = 5", fillcolor="#adf29c"] ;
130 -> 131 ;
132 [label="node #132\ngini = 0.0\nsamples = 3\nvalue = [0, 0, 0, 0, 0, 0, 3, 0, 0, 0, 0, 0, 0, 0\n0, 0, 0, 0, 0, 0, 0, 0, 0, 0, 0, 0]\nclass = 5", fillcolor="#5be539"] ;
131 -> 132 ;
133 [label="node #133\nwis <= 1.0\ngini = 0.5\nsamples = 2\nvalue = [0, 0, 0, 0, 0, 0, 0, 1, 0, 0, 0, 0, 0, 0\n1, 0, 0, 0, 0, 0, 0, 0, 0, 0, 0, 0]\nclass = 6", fillcolor="#ffffff"] ;
131 -> 133 ;
134 [label="node #134\ngini = 0.0\nsamples = 1\nvalue = [0, 0, 0, 0, 0, 0, 0, 0, 0, 0, 0, 0, 0, 0\n1, 0, 0, 0, 0, 0, 0, 0, 0, 0, 0, 0]\nclass = 13", fillcolor="#3978e5"] ;
133 -> 134 ;
135 [label="node #135\ngini = 0.0\nsamples = 1\nvalue = [0, 0, 0, 0, 0, 0, 0, 1, 0, 0, 0, 0, 0, 0\n0, 0, 0, 0, 0, 0, 0, 0, 0, 0, 0, 0]\nclass = 6", fillcolor="#39e53c"] ;
133 -> 135 ;
136 [label="node #136\nhp <= 145.0\ngini = 0.32\nsamples = 5\nvalue = [0, 0, 0, 0, 0, 0, 0, 4, 1, 0, 0, 0, 0, 0\n0, 0, 0, 0, 0, 0, 0, 0, 0, 0, 0, 0]\nclass = 6", fillcolor="#6aec6d"] ;
130 -> 136 ;
137 [label="node #137\ngini = 0.0\nsamples = 4\nvalue = [0, 0, 0, 0, 0, 0, 0, 4, 0, 0, 0, 0, 0, 0\n0, 0, 0, 0, 0, 0, 0, 0, 0, 0, 0, 0]\nclass = 6", fillcolor="#39e53c"] ;
136 -> 137 ;
138 [label="node #138\ngini = 0.0\nsamples = 1\nvalue = [0, 0, 0, 0, 0, 0, 0, 0, 1, 0, 0, 0, 0, 0\n0, 0, 0, 0, 0, 0, 0, 0, 0, 0, 0, 0]\nclass = 7", fillcolor="#39e564"] ;
136 -> 138 ;
139 [label="node #139\nhp <= 132.5\ngini = 0.525\nsamples = 67\nvalue = [0, 0, 0, 0, 0, 1, 6, 44, 12, 4, 0, 0, 0, 0\n0, 0, 0, 0, 0, 0, 0, 0, 0, 0, 0, 0]\nclass = 6", fillcolor="#8cf08e"] ;
67 -> 139 ;
140 [label="node #140\nhp <= 74.0\ngini = 0.387\nsamples = 57\nvalue = [0, 0, 0, 0, 0, 1, 6, 44, 3, 3, 0, 0, 0, 0\n0, 0, 0, 0, 0, 0, 0, 0, 0, 0, 0, 0]\nclass = 6", fillcolor="#6bec6e"] ;
139 -> 140 ;
141 [label="node #141\nfort <= 9.5\ngini = 0.245\nsamples = 7\nvalue = [0, 0, 0, 0, 0, 0, 6, 1, 0, 0, 0, 0, 0, 0\n0, 0, 0, 0, 0, 0, 0, 0, 0, 0, 0, 0]\nclass = 5", fillcolor="#76e95a"] ;
140 -> 141 ;
142 [label="node #142\ngini = 0.0\nsamples = 1\nvalue = [0, 0, 0, 0, 0, 0, 0, 1, 0, 0, 0, 0, 0, 0\n0, 0, 0, 0, 0, 0, 0, 0, 0, 0, 0, 0]\nclass = 6", fillcolor="#39e53c"] ;
141 -> 142 ;
143 [label="node #143\ngini = 0.0\nsamples = 6\nvalue = [0, 0, 0, 0, 0, 0, 6, 0, 0, 0, 0, 0, 0, 0\n0, 0, 0, 0, 0, 0, 0, 0, 0, 0, 0, 0]\nclass = 5", fillcolor="#5be539"] ;
141 -> 143 ;
144 [label="node #144\nfort <= 17.5\ngini = 0.253\nsamples = 50\nvalue = [0, 0, 0, 0, 0, 1, 0, 43, 3, 3, 0, 0, 0, 0\n0, 0, 0, 0, 0, 0, 0, 0, 0, 0, 0, 0]\nclass = 6", fillcolor="#56e959"] ;
140 -> 144 ;
145 [label="node #145\nrefl <= 17.5\ngini = 0.16\nsamples = 47\nvalue = [0, 0, 0, 0, 0, 1, 0, 43, 2, 1, 0, 0, 0, 0\n0, 0, 0, 0, 0, 0, 0, 0, 0, 0, 0, 0]\nclass = 6", fillcolor="#4be74d"] ;
144 -> 145 ;
146 [label="node #146\nperception <= 10.0\ngini = 0.124\nsamples = 46\nvalue = [0, 0, 0, 0, 0, 1, 0, 43, 2, 0, 0, 0, 0, 0\n0, 0, 0, 0, 0, 0, 0, 0, 0, 0, 0, 0]\nclass = 6", fillcolor="#46e749"] ;
145 -> 146 ;
147 [label="node #147\ngini = 0.0\nsamples = 1\nvalue = [0, 0, 0, 0, 0, 1, 0, 0, 0, 0, 0, 0, 0, 0\n0, 0, 0, 0, 0, 0, 0, 0, 0, 0, 0, 0]\nclass = 4", fillcolor="#83e539"] ;
146 -> 147 ;
148 [label="node #148\nwill <= 17.5\ngini = 0.085\nsamples = 45\nvalue = [0, 0, 0, 0, 0, 0, 0, 43, 2, 0, 0, 0, 0, 0\n0, 0, 0, 0, 0, 0, 0, 0, 0, 0, 0, 0]\nclass = 6", fillcolor="#42e645"] ;
146 -> 148 ;
149 [label="node #149\ncha <= 6.5\ngini = 0.044\nsamples = 44\nvalue = [0, 0, 0, 0, 0, 0, 0, 43, 1, 0, 0, 0, 0, 0\n0, 0, 0, 0, 0, 0, 0, 0, 0, 0, 0, 0]\nclass = 6", fillcolor="#3ee641"] ;
148 -> 149 ;
150 [label="node #150\ngini = 0.0\nsamples = 43\nvalue = [0, 0, 0, 0, 0, 0, 0, 43, 0, 0, 0, 0, 0, 0\n0, 0, 0, 0, 0, 0, 0, 0, 0, 0, 0, 0]\nclass = 6", fillcolor="#39e53c"] ;
149 -> 150 ;
151 [label="node #151\ngini = 0.0\nsamples = 1\nvalue = [0, 0, 0, 0, 0, 0, 0, 0, 1, 0, 0, 0, 0, 0\n0, 0, 0, 0, 0, 0, 0, 0, 0, 0, 0, 0]\nclass = 7", fillcolor="#39e564"] ;
149 -> 151 ;
152 [label="node #152\ngini = 0.0\nsamples = 1\nvalue = [0, 0, 0, 0, 0, 0, 0, 0, 1, 0, 0, 0, 0, 0\n0, 0, 0, 0, 0, 0, 0, 0, 0, 0, 0, 0]\nclass = 7", fillcolor="#39e564"] ;
148 -> 152 ;
153 [label="node #153\ngini = 0.0\nsamples = 1\nvalue = [0, 0, 0, 0, 0, 0, 0, 0, 0, 1, 0, 0, 0, 0\n0, 0, 0, 0, 0, 0, 0, 0, 0, 0, 0, 0]\nclass = 8", fillcolor="#39e58c"] ;
145 -> 153 ;
154 [label="node #154\nperception <= 15.0\ngini = 0.444\nsamples = 3\nvalue = [0, 0, 0, 0, 0, 0, 0, 0, 1, 2, 0, 0, 0, 0\n0, 0, 0, 0, 0, 0, 0, 0, 0, 0, 0, 0]\nclass = 8", fillcolor="#9cf2c6"] ;
144 -> 154 ;
155 [label="node #155\ngini = 0.0\nsamples = 1\nvalue = [0, 0, 0, 0, 0, 0, 0, 0, 1, 0, 0, 0, 0, 0\n0, 0, 0, 0, 0, 0, 0, 0, 0, 0, 0, 0]\nclass = 7", fillcolor="#39e564"] ;
154 -> 155 ;
156 [label="node #156\ngini = 0.0\nsamples = 2\nvalue = [0, 0, 0, 0, 0, 0, 0, 0, 0, 2, 0, 0, 0, 0\n0, 0, 0, 0, 0, 0, 0, 0, 0, 0, 0, 0]\nclass = 8", fillcolor="#39e58c"] ;
154 -> 156 ;
157 [label="node #157\nhp <= 167.5\ngini = 0.18\nsamples = 10\nvalue = [0, 0, 0, 0, 0, 0, 0, 0, 9, 1, 0, 0, 0, 0\n0, 0, 0, 0, 0, 0, 0, 0, 0, 0, 0, 0]\nclass = 7", fillcolor="#4fe875"] ;
139 -> 157 ;
158 [label="node #158\ngini = 0.0\nsamples = 9\nvalue = [0, 0, 0, 0, 0, 0, 0, 0, 9, 0, 0, 0, 0, 0\n0, 0, 0, 0, 0, 0, 0, 0, 0, 0, 0, 0]\nclass = 7", fillcolor="#39e564"] ;
157 -> 158 ;
159 [label="node #159\ngini = 0.0\nsamples = 1\nvalue = [0, 0, 0, 0, 0, 0, 0, 0, 0, 1, 0, 0, 0, 0\n0, 0, 0, 0, 0, 0, 0, 0, 0, 0, 0, 0]\nclass = 8", fillcolor="#39e58c"] ;
157 -> 159 ;
160 [label="node #160\nac <= 28.5\ngini = 0.923\nsamples = 426\nvalue = [0.0, 0.0, 0.0, 0.0, 0.0, 0.0, 0.0, 1.0, 43.0, 40.0\n50.0, 47.0, 30.0, 32.0, 31.0, 26.0, 26.0, 19.0, 17.0\n16.0, 16.0, 19.0, 6.0, 1.0, 4.0, 2.0]\nclass = 9", fillcolor="#fdfffe"] ;
66 -> 160 ;
161 [label="node #161\nhp <= 129.0\ngini = 0.688\nsamples = 134\nvalue = [0, 0, 0, 0, 0, 0, 0, 1, 43, 38, 48, 3, 0, 0\n1, 0, 0, 0, 0, 0, 0, 0, 0, 0, 0, 0]\nclass = 9", fillcolor="#f4fefb"] ;
160 -> 161 ;
162 [label="node #162\nac <= 26.5\ngini = 0.357\nsamples = 52\nvalue = [0, 0, 0, 0, 0, 0, 0, 1, 41, 7, 3, 0, 0, 0\n0, 0, 0, 0, 0, 0, 0, 0, 0, 0, 0, 0]\nclass = 7", fillcolor="#69eb8a"] ;
161 -> 162 ;
163 [label="node #163\nhp <= 79.0\ngini = 0.054\nsamples = 36\nvalue = [0, 0, 0, 0, 0, 0, 0, 1, 35, 0, 0, 0, 0, 0\n0, 0, 0, 0, 0, 0, 0, 0, 0, 0, 0, 0]\nclass = 7", fillcolor="#3fe668"] ;
162 -> 163 ;
164 [label="node #164\ngini = 0.0\nsamples = 1\nvalue = [0, 0, 0, 0, 0, 0, 0, 1, 0, 0, 0, 0, 0, 0\n0, 0, 0, 0, 0, 0, 0, 0, 0, 0, 0, 0]\nclass = 6", fillcolor="#39e53c"] ;
163 -> 164 ;
165 [label="node #165\ngini = 0.0\nsamples = 35\nvalue = [0, 0, 0, 0, 0, 0, 0, 0, 35, 0, 0, 0, 0, 0\n0, 0, 0, 0, 0, 0, 0, 0, 0, 0, 0, 0]\nclass = 7", fillcolor="#39e564"] ;
163 -> 165 ;
166 [label="node #166\nwis <= 2.5\ngini = 0.633\nsamples = 16\nvalue = [0, 0, 0, 0, 0, 0, 0, 0, 6, 7, 3, 0, 0, 0\n0, 0, 0, 0, 0, 0, 0, 0, 0, 0, 0, 0]\nclass = 8", fillcolor="#ebfcf4"] ;
162 -> 166 ;
167 [label="node #167\nperception <= 16.0\ngini = 0.245\nsamples = 7\nvalue = [0, 0, 0, 0, 0, 0, 0, 0, 6, 0, 1, 0, 0, 0\n0, 0, 0, 0, 0, 0, 0, 0, 0, 0, 0, 0]\nclass = 7", fillcolor="#5ae97e"] ;
166 -> 167 ;
168 [label="node #168\ngini = 0.0\nsamples = 6\nvalue = [0, 0, 0, 0, 0, 0, 0, 0, 6, 0, 0, 0, 0, 0\n0, 0, 0, 0, 0, 0, 0, 0, 0, 0, 0, 0]\nclass = 7", fillcolor="#39e564"] ;
167 -> 168 ;
169 [label="node #169\ngini = 0.0\nsamples = 1\nvalue = [0, 0, 0, 0, 0, 0, 0, 0, 0, 0, 1, 0, 0, 0\n0, 0, 0, 0, 0, 0, 0, 0, 0, 0, 0, 0]\nclass = 9", fillcolor="#39e5b4"] ;
167 -> 169 ;
170 [label="node #170\nwill <= 17.5\ngini = 0.346\nsamples = 9\nvalue = [0, 0, 0, 0, 0, 0, 0, 0, 0, 7, 2, 0, 0, 0\n0, 0, 0, 0, 0, 0, 0, 0, 0, 0, 0, 0]\nclass = 8", fillcolor="#72ecad"] ;
166 -> 170 ;
171 [label="node #171\ngini = 0.0\nsamples = 7\nvalue = [0, 0, 0, 0, 0, 0, 0, 0, 0, 7, 0, 0, 0, 0\n0, 0, 0, 0, 0, 0, 0, 0, 0, 0, 0, 0]\nclass = 8", fillcolor="#39e58c"] ;
170 -> 171 ;
172 [label="node #172\ngini = 0.0\nsamples = 2\nvalue = [0, 0, 0, 0, 0, 0, 0, 0, 0, 0, 2, 0, 0, 0\n0, 0, 0, 0, 0, 0, 0, 0, 0, 0, 0, 0]\nclass = 9", fillcolor="#39e5b4"] ;
170 -> 172 ;
173 [label="node #173\nrefl <= 16.5\ngini = 0.554\nsamples = 82\nvalue = [0, 0, 0, 0, 0, 0, 0, 0, 2, 31, 45, 3, 0, 0\n1, 0, 0, 0, 0, 0, 0, 0, 0, 0, 0, 0]\nclass = 9", fillcolor="#c9f8ea"] ;
161 -> 173 ;
174 [label="node #174\nhp <= 171.0\ngini = 0.485\nsamples = 35\nvalue = [0, 0, 0, 0, 0, 0, 0, 0, 1, 23, 10, 1, 0, 0\n0, 0, 0, 0, 0, 0, 0, 0, 0, 0, 0, 0]\nclass = 8", fillcolor="#98f1c3"] ;
173 -> 174 ;
175 [label="node #175\nwill <= 20.0\ngini = 0.349\nsamples = 28\nvalue = [0, 0, 0, 0, 0, 0, 0, 0, 1, 22, 5, 0, 0, 0\n0, 0, 0, 0, 0, 0, 0, 0, 0, 0, 0, 0]\nclass = 8", fillcolor="#6decaa"] ;
174 -> 175 ;
176 [label="node #176\nstr <= 6.5\ngini = 0.269\nsamples = 26\nvalue = [0, 0, 0, 0, 0, 0, 0, 0, 1, 22, 3, 0, 0, 0\n0, 0, 0, 0, 0, 0, 0, 0, 0, 0, 0, 0]\nclass = 8", fillcolor="#5beaa0"] ;
175 -> 176 ;
177 [label="node #177\nhp <= 132.5\ngini = 0.1\nsamples = 19\nvalue = [0, 0, 0, 0, 0, 0, 0, 0, 1, 18, 0, 0, 0, 0\n0, 0, 0, 0, 0, 0, 0, 0, 0, 0, 0, 0]\nclass = 8", fillcolor="#44e692"] ;
176 -> 177 ;
178 [label="node #178\nwill <= 16.5\ngini = 0.5\nsamples = 2\nvalue = [0, 0, 0, 0, 0, 0, 0, 0, 1, 1, 0, 0, 0, 0\n0, 0, 0, 0, 0, 0, 0, 0, 0, 0, 0, 0]\nclass = 7", fillcolor="#ffffff"] ;
177 -> 178 ;
179 [label="node #179\ngini = 0.0\nsamples = 1\nvalue = [0, 0, 0, 0, 0, 0, 0, 0, 1, 0, 0, 0, 0, 0\n0, 0, 0, 0, 0, 0, 0, 0, 0, 0, 0, 0]\nclass = 7", fillcolor="#39e564"] ;
178 -> 179 ;
180 [label="node #180\ngini = 0.0\nsamples = 1\nvalue = [0, 0, 0, 0, 0, 0, 0, 0, 0, 1, 0, 0, 0, 0\n0, 0, 0, 0, 0, 0, 0, 0, 0, 0, 0, 0]\nclass = 8", fillcolor="#39e58c"] ;
178 -> 180 ;
181 [label="node #181\ngini = 0.0\nsamples = 17\nvalue = [0, 0, 0, 0, 0, 0, 0, 0, 0, 17, 0, 0, 0, 0\n0, 0, 0, 0, 0, 0, 0, 0, 0, 0, 0, 0]\nclass = 8", fillcolor="#39e58c"] ;
177 -> 181 ;
182 [label="node #182\nwill <= 16.5\ngini = 0.49\nsamples = 7\nvalue = [0, 0, 0, 0, 0, 0, 0, 0, 0, 4, 3, 0, 0, 0\n0, 0, 0, 0, 0, 0, 0, 0, 0, 0, 0, 0]\nclass = 8", fillcolor="#cef8e2"] ;
176 -> 182 ;
183 [label="node #183\ngini = 0.0\nsamples = 3\nvalue = [0, 0, 0, 0, 0, 0, 0, 0, 0, 3, 0, 0, 0, 0\n0, 0, 0, 0, 0, 0, 0, 0, 0, 0, 0, 0]\nclass = 8", fillcolor="#39e58c"] ;
182 -> 183 ;
184 [label="node #184\nfort <= 18.5\ngini = 0.375\nsamples = 4\nvalue = [0, 0, 0, 0, 0, 0, 0, 0, 0, 1, 3, 0, 0, 0\n0, 0, 0, 0, 0, 0, 0, 0, 0, 0, 0, 0]\nclass = 9", fillcolor="#7beecd"] ;
182 -> 184 ;
185 [label="node #185\ngini = 0.0\nsamples = 1\nvalue = [0, 0, 0, 0, 0, 0, 0, 0, 0, 1, 0, 0, 0, 0\n0, 0, 0, 0, 0, 0, 0, 0, 0, 0, 0, 0]\nclass = 8", fillcolor="#39e58c"] ;
184 -> 185 ;
186 [label="node #186\ngini = 0.0\nsamples = 3\nvalue = [0, 0, 0, 0, 0, 0, 0, 0, 0, 0, 3, 0, 0, 0\n0, 0, 0, 0, 0, 0, 0, 0, 0, 0, 0, 0]\nclass = 9", fillcolor="#39e5b4"] ;
184 -> 186 ;
187 [label="node #187\ngini = 0.0\nsamples = 2\nvalue = [0, 0, 0, 0, 0, 0, 0, 0, 0, 0, 2, 0, 0, 0\n0, 0, 0, 0, 0, 0, 0, 0, 0, 0, 0, 0]\nclass = 9", fillcolor="#39e5b4"] ;
175 -> 187 ;
188 [label="node #188\nfort <= 21.5\ngini = 0.449\nsamples = 7\nvalue = [0, 0, 0, 0, 0, 0, 0, 0, 0, 1, 5, 1, 0, 0\n0, 0, 0, 0, 0, 0, 0, 0, 0, 0, 0, 0]\nclass = 9", fillcolor="#7beecd"] ;
174 -> 188 ;
189 [label="node #189\nwis <= 3.5\ngini = 0.278\nsamples = 6\nvalue = [0, 0, 0, 0, 0, 0, 0, 0, 0, 1, 5, 0, 0, 0\n0, 0, 0, 0, 0, 0, 0, 0, 0, 0, 0, 0]\nclass = 9", fillcolor="#61eac3"] ;
188 -> 189 ;
190 [label="node #190\ngini = 0.0\nsamples = 5\nvalue = [0, 0, 0, 0, 0, 0, 0, 0, 0, 0, 5, 0, 0, 0\n0, 0, 0, 0, 0, 0, 0, 0, 0, 0, 0, 0]\nclass = 9", fillcolor="#39e5b4"] ;
189 -> 190 ;
191 [label="node #191\ngini = 0.0\nsamples = 1\nvalue = [0, 0, 0, 0, 0, 0, 0, 0, 0, 1, 0, 0, 0, 0\n0, 0, 0, 0, 0, 0, 0, 0, 0, 0, 0, 0]\nclass = 8", fillcolor="#39e58c"] ;
189 -> 191 ;
192 [label="node #192\ngini = 0.0\nsamples = 1\nvalue = [0, 0, 0, 0, 0, 0, 0, 0, 0, 0, 0, 1, 0, 0\n0, 0, 0, 0, 0, 0, 0, 0, 0, 0, 0, 0]\nclass = 10", fillcolor="#39e5dc"] ;
188 -> 192 ;
193 [label="node #193\ncon <= 2.5\ngini = 0.414\nsamples = 47\nvalue = [0, 0, 0, 0, 0, 0, 0, 0, 1, 8, 35, 2, 0, 0\n1, 0, 0, 0, 0, 0, 0, 0, 0, 0, 0, 0]\nclass = 9", fillcolor="#76edcb"] ;
173 -> 193 ;
194 [label="node #194\ngini = 0.0\nsamples = 5\nvalue = [0, 0, 0, 0, 0, 0, 0, 0, 0, 5, 0, 0, 0, 0\n0, 0, 0, 0, 0, 0, 0, 0, 0, 0, 0, 0]\nclass = 8", fillcolor="#39e58c"] ;
193 -> 194 ;
195 [label="node #195\nfort <= 21.0\ngini = 0.297\nsamples = 42\nvalue = [0, 0, 0, 0, 0, 0, 0, 0, 1, 3, 35, 2, 0, 0\n1, 0, 0, 0, 0, 0, 0, 0, 0, 0, 0, 0]\nclass = 9", fillcolor="#5deac1"] ;
193 -> 195 ;
196 [label="node #196\nhp <= 142.5\ngini = 0.188\nsamples = 39\nvalue = [0, 0, 0, 0, 0, 0, 0, 0, 1, 3, 35, 0, 0, 0\n0, 0, 0, 0, 0, 0, 0, 0, 0, 0, 0, 0]\nclass = 9", fillcolor="#4fe8bc"] ;
195 -> 196 ;
197 [label="node #197\nwill <= 15.5\ngini = 0.568\nsamples = 9\nvalue = [0, 0, 0, 0, 0, 0, 0, 0, 1, 3, 5, 0, 0, 0\n0, 0, 0, 0, 0, 0, 0, 0, 0, 0, 0, 0]\nclass = 9", fillcolor="#bdf6e6"] ;
196 -> 197 ;
198 [label="node #198\nhp <= 133.5\ngini = 0.56\nsamples = 5\nvalue = [0, 0, 0, 0, 0, 0, 0, 0, 1, 3, 1, 0, 0, 0\n0, 0, 0, 0, 0, 0, 0, 0, 0, 0, 0, 0]\nclass = 8", fillcolor="#9cf2c6"] ;
197 -> 198 ;
199 [label="node #199\nfort <= 17.0\ngini = 0.5\nsamples = 2\nvalue = [0, 0, 0, 0, 0, 0, 0, 0, 1, 0, 1, 0, 0, 0\n0, 0, 0, 0, 0, 0, 0, 0, 0, 0, 0, 0]\nclass = 7", fillcolor="#ffffff"] ;
198 -> 199 ;
200 [label="node #200\ngini = 0.0\nsamples = 1\nvalue = [0, 0, 0, 0, 0, 0, 0, 0, 1, 0, 0, 0, 0, 0\n0, 0, 0, 0, 0, 0, 0, 0, 0, 0, 0, 0]\nclass = 7", fillcolor="#39e564"] ;
199 -> 200 ;
201 [label="node #201\ngini = 0.0\nsamples = 1\nvalue = [0, 0, 0, 0, 0, 0, 0, 0, 0, 0, 1, 0, 0, 0\n0, 0, 0, 0, 0, 0, 0, 0, 0, 0, 0, 0]\nclass = 9", fillcolor="#39e5b4"] ;
199 -> 201 ;
202 [label="node #202\ngini = 0.0\nsamples = 3\nvalue = [0, 0, 0, 0, 0, 0, 0, 0, 0, 3, 0, 0, 0, 0\n0, 0, 0, 0, 0, 0, 0, 0, 0, 0, 0, 0]\nclass = 8", fillcolor="#39e58c"] ;
198 -> 202 ;
203 [label="node #203\ngini = 0.0\nsamples = 4\nvalue = [0, 0, 0, 0, 0, 0, 0, 0, 0, 0, 4, 0, 0, 0\n0, 0, 0, 0, 0, 0, 0, 0, 0, 0, 0, 0]\nclass = 9", fillcolor="#39e5b4"] ;
197 -> 203 ;
204 [label="node #204\ngini = 0.0\nsamples = 30\nvalue = [0, 0, 0, 0, 0, 0, 0, 0, 0, 0, 30, 0, 0, 0\n0, 0, 0, 0, 0, 0, 0, 0, 0, 0, 0, 0]\nclass = 9", fillcolor="#39e5b4"] ;
196 -> 204 ;
205 [label="node #205\nfort <= 24.0\ngini = 0.444\nsamples = 3\nvalue = [0, 0, 0, 0, 0, 0, 0, 0, 0, 0, 0, 2, 0, 0\n1, 0, 0, 0, 0, 0, 0, 0, 0, 0, 0, 0]\nclass = 10", fillcolor="#9cf2ee"] ;
195 -> 205 ;
206 [label="node #206\ngini = 0.0\nsamples = 2\nvalue = [0, 0, 0, 0, 0, 0, 0, 0, 0, 0, 0, 2, 0, 0\n0, 0, 0, 0, 0, 0, 0, 0, 0, 0, 0, 0]\nclass = 10", fillcolor="#39e5dc"] ;
205 -> 206 ;
207 [label="node #207\ngini = 0.0\nsamples = 1\nvalue = [0, 0, 0, 0, 0, 0, 0, 0, 0, 0, 0, 0, 0, 0\n1, 0, 0, 0, 0, 0, 0, 0, 0, 0, 0, 0]\nclass = 13", fillcolor="#3978e5"] ;
205 -> 207 ;
208 [label="node #208\nac <= 31.5\ngini = 0.91\nsamples = 292\nvalue = [0, 0, 0, 0, 0, 0, 0, 0, 0, 2, 2, 44, 30, 32\n30, 26, 26, 19, 17, 16, 16, 19, 6, 1, 4, 2]\nclass = 10", fillcolor="#f6fefd"] ;
160 -> 208 ;
209 [label="node #209\nac <= 30.5\ngini = 0.557\nsamples = 77\nvalue = [0, 0, 0, 0, 0, 0, 0, 0, 0, 2, 2, 44, 26, 1\n0, 2, 0, 0, 0, 0, 0, 0, 0, 0, 0, 0]\nclass = 10", fillcolor="#b9f6f3"] ;
208 -> 209 ;
210 [label="node #210\nperception <= 17.5\ngini = 0.368\nsamples = 51\nvalue = [0, 0, 0, 0, 0, 0, 0, 0, 0, 2, 2, 40, 6, 0\n0, 1, 0, 0, 0, 0, 0, 0, 0, 0, 0, 0]\nclass = 10", fillcolor="#69ebe5"] ;
209 -> 210 ;
211 [label="node #211\nwis <= 1.5\ngini = 0.735\nsamples = 7\nvalue = [0, 0, 0, 0, 0, 0, 0, 0, 0, 2, 1, 2, 2, 0\n0, 0, 0, 0, 0, 0, 0, 0, 0, 0, 0, 0]\nclass = 8", fillcolor="#ffffff"] ;
210 -> 211 ;
212 [label="node #212\nwill <= 18.0\ngini = 0.64\nsamples = 5\nvalue = [0, 0, 0, 0, 0, 0, 0, 0, 0, 0, 1, 2, 2, 0\n0, 0, 0, 0, 0, 0, 0, 0, 0, 0, 0, 0]\nclass = 10", fillcolor="#ffffff"] ;
211 -> 212 ;
213 [label="node #213\nwill <= 15.0\ngini = 0.444\nsamples = 3\nvalue = [0, 0, 0, 0, 0, 0, 0, 0, 0, 0, 1, 2, 0, 0\n0, 0, 0, 0, 0, 0, 0, 0, 0, 0, 0, 0]\nclass = 10", fillcolor="#9cf2ee"] ;
212 -> 213 ;
214 [label="node #214\ngini = 0.0\nsamples = 1\nvalue = [0, 0, 0, 0, 0, 0, 0, 0, 0, 0, 1, 0, 0, 0\n0, 0, 0, 0, 0, 0, 0, 0, 0, 0, 0, 0]\nclass = 9", fillcolor="#39e5b4"] ;
213 -> 214 ;
215 [label="node #215\ngini = 0.0\nsamples = 2\nvalue = [0, 0, 0, 0, 0, 0, 0, 0, 0, 0, 0, 2, 0, 0\n0, 0, 0, 0, 0, 0, 0, 0, 0, 0, 0, 0]\nclass = 10", fillcolor="#39e5dc"] ;
213 -> 215 ;
216 [label="node #216\ngini = 0.0\nsamples = 2\nvalue = [0, 0, 0, 0, 0, 0, 0, 0, 0, 0, 0, 0, 2, 0\n0, 0, 0, 0, 0, 0, 0, 0, 0, 0, 0, 0]\nclass = 11", fillcolor="#39c5e5"] ;
212 -> 216 ;
217 [label="node #217\ngini = 0.0\nsamples = 2\nvalue = [0, 0, 0, 0, 0, 0, 0, 0, 0, 2, 0, 0, 0, 0\n0, 0, 0, 0, 0, 0, 0, 0, 0, 0, 0, 0]\nclass = 8", fillcolor="#39e58c"] ;
211 -> 217 ;
218 [label="node #218\nwill <= 23.5\ngini = 0.245\nsamples = 44\nvalue = [0, 0, 0, 0, 0, 0, 0, 0, 0, 0, 1, 38, 4, 0\n0, 1, 0, 0, 0, 0, 0, 0, 0, 0, 0, 0]\nclass = 10", fillcolor="#57e9e1"] ;
210 -> 218 ;
219 [label="node #219\nfort <= 15.5\ngini = 0.176\nsamples = 42\nvalue = [0, 0, 0, 0, 0, 0, 0, 0, 0, 0, 1, 38, 3, 0\n0, 0, 0, 0, 0, 0, 0, 0, 0, 0, 0, 0]\nclass = 10", fillcolor="#4de8e0"] ;
218 -> 219 ;
220 [label="node #220\ngini = 0.0\nsamples = 1\nvalue = [0, 0, 0, 0, 0, 0, 0, 0, 0, 0, 1, 0, 0, 0\n0, 0, 0, 0, 0, 0, 0, 0, 0, 0, 0, 0]\nclass = 9", fillcolor="#39e5b4"] ;
219 -> 220 ;
221 [label="node #221\nfort <= 22.5\ngini = 0.136\nsamples = 41\nvalue = [0, 0, 0, 0, 0, 0, 0, 0, 0, 0, 0, 38, 3, 0\n0, 0, 0, 0, 0, 0, 0, 0, 0, 0, 0, 0]\nclass = 10", fillcolor="#49e7df"] ;
219 -> 221 ;
222 [label="node #222\nrefl <= 19.5\ngini = 0.095\nsamples = 40\nvalue = [0, 0, 0, 0, 0, 0, 0, 0, 0, 0, 0, 38, 2, 0\n0, 0, 0, 0, 0, 0, 0, 0, 0, 0, 0, 0]\nclass = 10", fillcolor="#43e6de"] ;
221 -> 222 ;
223 [label="node #223\ngini = 0.0\nsamples = 28\nvalue = [0, 0, 0, 0, 0, 0, 0, 0, 0, 0, 0, 28, 0, 0\n0, 0, 0, 0, 0, 0, 0, 0, 0, 0, 0, 0]\nclass = 10", fillcolor="#39e5dc"] ;
222 -> 223 ;
224 [label="node #224\nfort <= 20.5\ngini = 0.278\nsamples = 12\nvalue = [0, 0, 0, 0, 0, 0, 0, 0, 0, 0, 0, 10, 2, 0\n0, 0, 0, 0, 0, 0, 0, 0, 0, 0, 0, 0]\nclass = 10", fillcolor="#61eae3"] ;
222 -> 224 ;
225 [label="node #225\ngini = 0.0\nsamples = 10\nvalue = [0, 0, 0, 0, 0, 0, 0, 0, 0, 0, 0, 10, 0, 0\n0, 0, 0, 0, 0, 0, 0, 0, 0, 0, 0, 0]\nclass = 10", fillcolor="#39e5dc"] ;
224 -> 225 ;
226 [label="node #226\ngini = 0.0\nsamples = 2\nvalue = [0, 0, 0, 0, 0, 0, 0, 0, 0, 0, 0, 0, 2, 0\n0, 0, 0, 0, 0, 0, 0, 0, 0, 0, 0, 0]\nclass = 11", fillcolor="#39c5e5"] ;
224 -> 226 ;
227 [label="node #227\ngini = 0.0\nsamples = 1\nvalue = [0, 0, 0, 0, 0, 0, 0, 0, 0, 0, 0, 0, 1, 0\n0, 0, 0, 0, 0, 0, 0, 0, 0, 0, 0, 0]\nclass = 11", fillcolor="#39c5e5"] ;
221 -> 227 ;
228 [label="node #228\nfort <= 21.0\ngini = 0.5\nsamples = 2\nvalue = [0, 0, 0, 0, 0, 0, 0, 0, 0, 0, 0, 0, 1, 0\n0, 1, 0, 0, 0, 0, 0, 0, 0, 0, 0, 0]\nclass = 11", fillcolor="#ffffff"] ;
218 -> 228 ;
229 [label="node #229\ngini = 0.0\nsamples = 1\nvalue = [0, 0, 0, 0, 0, 0, 0, 0, 0, 0, 0, 0, 1, 0\n0, 0, 0, 0, 0, 0, 0, 0, 0, 0, 0, 0]\nclass = 11", fillcolor="#39c5e5"] ;
228 -> 229 ;
230 [label="node #230\ngini = 0.0\nsamples = 1\nvalue = [0, 0, 0, 0, 0, 0, 0, 0, 0, 0, 0, 0, 0, 0\n0, 1, 0, 0, 0, 0, 0, 0, 0, 0, 0, 0]\nclass = 14", fillcolor="#3950e5"] ;
228 -> 230 ;
231 [label="node #231\ndex <= 2.5\ngini = 0.382\nsamples = 26\nvalue = [0, 0, 0, 0, 0, 0, 0, 0, 0, 0, 0, 4, 20, 1\n0, 1, 0, 0, 0, 0, 0, 0, 0, 0, 0, 0]\nclass = 11", fillcolor="#6fd5ec"] ;
209 -> 231 ;
232 [label="node #232\ngini = 0.0\nsamples = 3\nvalue = [0, 0, 0, 0, 0, 0, 0, 0, 0, 0, 0, 3, 0, 0\n0, 0, 0, 0, 0, 0, 0, 0, 0, 0, 0, 0]\nclass = 10", fillcolor="#39e5dc"] ;
231 -> 232 ;
233 [label="node #233\nrefl <= 26.5\ngini = 0.238\nsamples = 23\nvalue = [0, 0, 0, 0, 0, 0, 0, 0, 0, 0, 0, 1, 20, 1\n0, 1, 0, 0, 0, 0, 0, 0, 0, 0, 0, 0]\nclass = 11", fillcolor="#54cde9"] ;
231 -> 233 ;
234 [label="node #234\nrefl <= 20.5\ngini = 0.169\nsamples = 22\nvalue = [0, 0, 0, 0, 0, 0, 0, 0, 0, 0, 0, 1, 20, 1\n0, 0, 0, 0, 0, 0, 0, 0, 0, 0, 0, 0]\nclass = 11", fillcolor="#4ccbe7"] ;
233 -> 234 ;
235 [label="node #235\ngini = 0.0\nsamples = 17\nvalue = [0, 0, 0, 0, 0, 0, 0, 0, 0, 0, 0, 0, 17, 0\n0, 0, 0, 0, 0, 0, 0, 0, 0, 0, 0, 0]\nclass = 11", fillcolor="#39c5e5"] ;
234 -> 235 ;
236 [label="node #236\ndex <= 5.0\ngini = 0.56\nsamples = 5\nvalue = [0, 0, 0, 0, 0, 0, 0, 0, 0, 0, 0, 1, 3, 1\n0, 0, 0, 0, 0, 0, 0, 0, 0, 0, 0, 0]\nclass = 11", fillcolor="#9ce2f2"] ;
234 -> 236 ;
237 [label="node #237\ngini = 0.0\nsamples = 1\nvalue = [0, 0, 0, 0, 0, 0, 0, 0, 0, 0, 0, 0, 0, 1\n0, 0, 0, 0, 0, 0, 0, 0, 0, 0, 0, 0]\nclass = 12", fillcolor="#399de5"] ;
236 -> 237 ;
238 [label="node #238\nstr <= 5.5\ngini = 0.375\nsamples = 4\nvalue = [0, 0, 0, 0, 0, 0, 0, 0, 0, 0, 0, 1, 3, 0\n0, 0, 0, 0, 0, 0, 0, 0, 0, 0, 0, 0]\nclass = 11", fillcolor="#7bd8ee"] ;
236 -> 238 ;
239 [label="node #239\ngini = 0.0\nsamples = 1\nvalue = [0, 0, 0, 0, 0, 0, 0, 0, 0, 0, 0, 1, 0, 0\n0, 0, 0, 0, 0, 0, 0, 0, 0, 0, 0, 0]\nclass = 10", fillcolor="#39e5dc"] ;
238 -> 239 ;
240 [label="node #240\ngini = 0.0\nsamples = 3\nvalue = [0, 0, 0, 0, 0, 0, 0, 0, 0, 0, 0, 0, 3, 0\n0, 0, 0, 0, 0, 0, 0, 0, 0, 0, 0, 0]\nclass = 11", fillcolor="#39c5e5"] ;
238 -> 240 ;
241 [label="node #241\ngini = 0.0\nsamples = 1\nvalue = [0, 0, 0, 0, 0, 0, 0, 0, 0, 0, 0, 0, 0, 0\n0, 1, 0, 0, 0, 0, 0, 0, 0, 0, 0, 0]\nclass = 14", fillcolor="#3950e5"] ;
233 -> 241 ;
242 [label="node #242\nac <= 34.5\ngini = 0.898\nsamples = 215\nvalue = [0.0, 0.0, 0.0, 0.0, 0.0, 0.0, 0.0, 0.0, 0.0, 0.0\n0.0, 0.0, 4.0, 31.0, 30.0, 24.0, 26.0, 19.0, 17.0\n16.0, 16.0, 19.0, 6.0, 1.0, 4.0, 2.0]\nclass = 12", fillcolor="#fefeff"] ;
208 -> 242 ;
243 [label="node #243\nac <= 33.5\ngini = 0.603\nsamples = 68\nvalue = [0, 0, 0, 0, 0, 0, 0, 0, 0, 0, 0, 0, 4, 31\n29, 4, 0, 0, 0, 0, 0, 0, 0, 0, 0, 0]\nclass = 12", fillcolor="#f5fafe"] ;
242 -> 243 ;
244 [label="node #244\nhp <= 262.5\ngini = 0.397\nsamples = 37\nvalue = [0, 0, 0, 0, 0, 0, 0, 0, 0, 0, 0, 0, 4, 28\n5, 0, 0, 0, 0, 0, 0, 0, 0, 0, 0, 0]\nclass = 12", fillcolor="#71b9ec"] ;
243 -> 244 ;
245 [label="node #245\ndex <= 2.5\ngini = 0.304\nsamples = 34\nvalue = [0, 0, 0, 0, 0, 0, 0, 0, 0, 0, 0, 0, 4, 28\n2, 0, 0, 0, 0, 0, 0, 0, 0, 0, 0, 0]\nclass = 12", fillcolor="#61b1ea"] ;
244 -> 245 ;
246 [label="node #246\nfort <= 24.5\ngini = 0.494\nsamples = 9\nvalue = [0, 0, 0, 0, 0, 0, 0, 0, 0, 0, 0, 0, 4, 5\n0, 0, 0, 0, 0, 0, 0, 0, 0, 0, 0, 0]\nclass = 12", fillcolor="#d7ebfa"] ;
245 -> 246 ;
247 [label="node #247\nrefl <= 18.0\ngini = 0.32\nsamples = 5\nvalue = [0, 0, 0, 0, 0, 0, 0, 0, 0, 0, 0, 0, 4, 1\n0, 0, 0, 0, 0, 0, 0, 0, 0, 0, 0, 0]\nclass = 11", fillcolor="#6ad4ec"] ;
246 -> 247 ;
248 [label="node #248\ngini = 0.0\nsamples = 1\nvalue = [0, 0, 0, 0, 0, 0, 0, 0, 0, 0, 0, 0, 0, 1\n0, 0, 0, 0, 0, 0, 0, 0, 0, 0, 0, 0]\nclass = 12", fillcolor="#399de5"] ;
247 -> 248 ;
249 [label="node #249\ngini = 0.0\nsamples = 4\nvalue = [0, 0, 0, 0, 0, 0, 0, 0, 0, 0, 0, 0, 4, 0\n0, 0, 0, 0, 0, 0, 0, 0, 0, 0, 0, 0]\nclass = 11", fillcolor="#39c5e5"] ;
247 -> 249 ;
250 [label="node #250\ngini = 0.0\nsamples = 4\nvalue = [0, 0, 0, 0, 0, 0, 0, 0, 0, 0, 0, 0, 0, 4\n0, 0, 0, 0, 0, 0, 0, 0, 0, 0, 0, 0]\nclass = 12", fillcolor="#399de5"] ;
246 -> 250 ;
251 [label="node #251\nwis <= 2.5\ngini = 0.147\nsamples = 25\nvalue = [0, 0, 0, 0, 0, 0, 0, 0, 0, 0, 0, 0, 0, 23\n2, 0, 0, 0, 0, 0, 0, 0, 0, 0, 0, 0]\nclass = 12", fillcolor="#4aa6e7"] ;
245 -> 251 ;
252 [label="node #252\ngini = 0.0\nsamples = 1\nvalue = [0, 0, 0, 0, 0, 0, 0, 0, 0, 0, 0, 0, 0, 0\n1, 0, 0, 0, 0, 0, 0, 0, 0, 0, 0, 0]\nclass = 13", fillcolor="#3978e5"] ;
251 -> 252 ;
253 [label="node #253\ncha <= -0.5\ngini = 0.08\nsamples = 24\nvalue = [0, 0, 0, 0, 0, 0, 0, 0, 0, 0, 0, 0, 0, 23\n1, 0, 0, 0, 0, 0, 0, 0, 0, 0, 0, 0]\nclass = 12", fillcolor="#42a1e6"] ;
251 -> 253 ;
254 [label="node #254\ngini = 0.0\nsamples = 1\nvalue = [0, 0, 0, 0, 0, 0, 0, 0, 0, 0, 0, 0, 0, 0\n1, 0, 0, 0, 0, 0, 0, 0, 0, 0, 0, 0]\nclass = 13", fillcolor="#3978e5"] ;
253 -> 254 ;
255 [label="node #255\ngini = 0.0\nsamples = 23\nvalue = [0, 0, 0, 0, 0, 0, 0, 0, 0, 0, 0, 0, 0, 23\n0, 0, 0, 0, 0, 0, 0, 0, 0, 0, 0, 0]\nclass = 12", fillcolor="#399de5"] ;
253 -> 255 ;
256 [label="node #256\ngini = 0.0\nsamples = 3\nvalue = [0, 0, 0, 0, 0, 0, 0, 0, 0, 0, 0, 0, 0, 0\n3, 0, 0, 0, 0, 0, 0, 0, 0, 0, 0, 0]\nclass = 13", fillcolor="#3978e5"] ;
244 -> 256 ;
257 [label="node #257\nhp <= 220.0\ngini = 0.375\nsamples = 31\nvalue = [0, 0, 0, 0, 0, 0, 0, 0, 0, 0, 0, 0, 0, 3\n24, 4, 0, 0, 0, 0, 0, 0, 0, 0, 0, 0]\nclass = 13", fillcolor="#6c9bec"] ;
243 -> 257 ;
258 [label="node #258\ndex <= 5.5\ngini = 0.653\nsamples = 7\nvalue = [0, 0, 0, 0, 0, 0, 0, 0, 0, 0, 0, 0, 0, 3\n2, 2, 0, 0, 0, 0, 0, 0, 0, 0, 0, 0]\nclass = 12", fillcolor="#d7ebfa"] ;
257 -> 258 ;
259 [label="node #259\nfort <= 23.5\ngini = 0.48\nsamples = 5\nvalue = [0, 0, 0, 0, 0, 0, 0, 0, 0, 0, 0, 0, 0, 3\n2, 0, 0, 0, 0, 0, 0, 0, 0, 0, 0, 0]\nclass = 12", fillcolor="#bddef6"] ;
258 -> 259 ;
260 [label="node #260\ngini = 0.0\nsamples = 3\nvalue = [0, 0, 0, 0, 0, 0, 0, 0, 0, 0, 0, 0, 0, 3\n0, 0, 0, 0, 0, 0, 0, 0, 0, 0, 0, 0]\nclass = 12", fillcolor="#399de5"] ;
259 -> 260 ;
261 [label="node #261\ngini = 0.0\nsamples = 2\nvalue = [0, 0, 0, 0, 0, 0, 0, 0, 0, 0, 0, 0, 0, 0\n2, 0, 0, 0, 0, 0, 0, 0, 0, 0, 0, 0]\nclass = 13", fillcolor="#3978e5"] ;
259 -> 261 ;
262 [label="node #262\ngini = 0.0\nsamples = 2\nvalue = [0, 0, 0, 0, 0, 0, 0, 0, 0, 0, 0, 0, 0, 0\n0, 2, 0, 0, 0, 0, 0, 0, 0, 0, 0, 0]\nclass = 14", fillcolor="#3950e5"] ;
258 -> 262 ;
263 [label="node #263\nhp <= 315.0\ngini = 0.153\nsamples = 24\nvalue = [0, 0, 0, 0, 0, 0, 0, 0, 0, 0, 0, 0, 0, 0\n22, 2, 0, 0, 0, 0, 0, 0, 0, 0, 0, 0]\nclass = 13", fillcolor="#4b84e7"] ;
257 -> 263 ;
264 [label="node #264\ngini = 0.0\nsamples = 22\nvalue = [0, 0, 0, 0, 0, 0, 0, 0, 0, 0, 0, 0, 0, 0\n22, 0, 0, 0, 0, 0, 0, 0, 0, 0, 0, 0]\nclass = 13", fillcolor="#3978e5"] ;
263 -> 264 ;
265 [label="node #265\ngini = 0.0\nsamples = 2\nvalue = [0, 0, 0, 0, 0, 0, 0, 0, 0, 0, 0, 0, 0, 0\n0, 2, 0, 0, 0, 0, 0, 0, 0, 0, 0, 0]\nclass = 14", fillcolor="#3950e5"] ;
263 -> 265 ;
266 [label="node #266\nac <= 38.5\ngini = 0.877\nsamples = 147\nvalue = [0.0, 0.0, 0.0, 0.0, 0.0, 0.0, 0.0, 0.0, 0.0, 0.0\n0.0, 0.0, 0.0, 0.0, 1.0, 20.0, 26.0, 19.0, 17.0\n16.0, 16.0, 19.0, 6.0, 1.0, 4.0, 2.0]\nclass = 15", fillcolor="#f6f6fe"] ;
242 -> 266 ;
267 [label="node #267\nperception <= 28.5\ngini = 0.575\nsamples = 47\nvalue = [0.0, 0.0, 0.0, 0.0, 0.0, 0.0, 0.0, 0.0, 0.0, 0.0\n0.0, 0.0, 0.0, 0.0, 1.0, 20.0, 23.0, 3.0, 0.0, 0.0\n0.0, 0.0, 0.0, 0.0, 0.0, 0.0]\nclass = 15", fillcolor="#ebe9fc"] ;
266 -> 267 ;
268 [label="node #268\nac <= 36.5\ngini = 0.525\nsamples = 32\nvalue = [0, 0, 0, 0, 0, 0, 0, 0, 0, 0, 0, 0, 0, 0\n1, 20, 9, 2, 0, 0, 0, 0, 0, 0, 0, 0]\nclass = 14", fillcolor="#a0abf3"] ;
267 -> 268 ;
269 [label="node #269\ncha <= -0.5\ngini = 0.204\nsamples = 18\nvalue = [0, 0, 0, 0, 0, 0, 0, 0, 0, 0, 0, 0, 0, 0\n1, 16, 1, 0, 0, 0, 0, 0, 0, 0, 0, 0]\nclass = 14", fillcolor="#5065e8"] ;
268 -> 269 ;
270 [label="node #270\nint <= 0.0\ngini = 0.5\nsamples = 2\nvalue = [0, 0, 0, 0, 0, 0, 0, 0, 0, 0, 0, 0, 0, 0\n1, 0, 1, 0, 0, 0, 0, 0, 0, 0, 0, 0]\nclass = 13", fillcolor="#ffffff"] ;
269 -> 270 ;
271 [label="node #271\ngini = 0.0\nsamples = 1\nvalue = [0, 0, 0, 0, 0, 0, 0, 0, 0, 0, 0, 0, 0, 0\n1, 0, 0, 0, 0, 0, 0, 0, 0, 0, 0, 0]\nclass = 13", fillcolor="#3978e5"] ;
270 -> 271 ;
272 [label="node #272\ngini = 0.0\nsamples = 1\nvalue = [0, 0, 0, 0, 0, 0, 0, 0, 0, 0, 0, 0, 0, 0\n0, 0, 1, 0, 0, 0, 0, 0, 0, 0, 0, 0]\nclass = 15", fillcolor="#4a39e5"] ;
270 -> 272 ;
273 [label="node #273\ngini = 0.0\nsamples = 16\nvalue = [0, 0, 0, 0, 0, 0, 0, 0, 0, 0, 0, 0, 0, 0\n0, 16, 0, 0, 0, 0, 0, 0, 0, 0, 0, 0]\nclass = 14", fillcolor="#3950e5"] ;
269 -> 273 ;
274 [label="node #274\ndex <= 3.5\ngini = 0.571\nsamples = 14\nvalue = [0, 0, 0, 0, 0, 0, 0, 0, 0, 0, 0, 0, 0, 0\n0, 4, 8, 2, 0, 0, 0, 0, 0, 0, 0, 0]\nclass = 15", fillcolor="#b7b0f5"] ;
268 -> 274 ;
275 [label="node #275\ngini = 0.0\nsamples = 4\nvalue = [0, 0, 0, 0, 0, 0, 0, 0, 0, 0, 0, 0, 0, 0\n0, 4, 0, 0, 0, 0, 0, 0, 0, 0, 0, 0]\nclass = 14", fillcolor="#3950e5"] ;
274 -> 275 ;
276 [label="node #276\nperception <= 27.5\ngini = 0.32\nsamples = 10\nvalue = [0, 0, 0, 0, 0, 0, 0, 0, 0, 0, 0, 0, 0, 0\n0, 0, 8, 2, 0, 0, 0, 0, 0, 0, 0, 0]\nclass = 15", fillcolor="#776aec"] ;
274 -> 276 ;
277 [label="node #277\ngini = 0.0\nsamples = 8\nvalue = [0, 0, 0, 0, 0, 0, 0, 0, 0, 0, 0, 0, 0, 0\n0, 0, 8, 0, 0, 0, 0, 0, 0, 0, 0, 0]\nclass = 15", fillcolor="#4a39e5"] ;
276 -> 277 ;
278 [label="node #278\ngini = 0.0\nsamples = 2\nvalue = [0, 0, 0, 0, 0, 0, 0, 0, 0, 0, 0, 0, 0, 0\n0, 0, 0, 2, 0, 0, 0, 0, 0, 0, 0, 0]\nclass = 16", fillcolor="#7239e5"] ;
276 -> 278 ;
279 [label="node #279\nwis <= 8.5\ngini = 0.124\nsamples = 15\nvalue = [0, 0, 0, 0, 0, 0, 0, 0, 0, 0, 0, 0, 0, 0\n0, 0, 14, 1, 0, 0, 0, 0, 0, 0, 0, 0]\nclass = 15", fillcolor="#5747e7"] ;
267 -> 279 ;
280 [label="node #280\ngini = 0.0\nsamples = 14\nvalue = [0, 0, 0, 0, 0, 0, 0, 0, 0, 0, 0, 0, 0, 0\n0, 0, 14, 0, 0, 0, 0, 0, 0, 0, 0, 0]\nclass = 15", fillcolor="#4a39e5"] ;
279 -> 280 ;
281 [label="node #281\ngini = 0.0\nsamples = 1\nvalue = [0, 0, 0, 0, 0, 0, 0, 0, 0, 0, 0, 0, 0, 0\n0, 0, 0, 1, 0, 0, 0, 0, 0, 0, 0, 0]\nclass = 16", fillcolor="#7239e5"] ;
279 -> 281 ;
282 [label="node #282\nac <= 43.5\ngini = 0.852\nsamples = 100\nvalue = [0, 0, 0, 0, 0, 0, 0, 0, 0, 0, 0, 0, 0, 0\n0, 0, 3, 16, 17, 16, 16, 19, 6, 1, 4, 2]\nclass = 20", fillcolor="#fefafd"] ;
266 -> 282 ;
283 [label="node #283\nac <= 41.5\ngini = 0.743\nsamples = 57\nvalue = [0, 0, 0, 0, 0, 0, 0, 0, 0, 0, 0, 0, 0, 0\n0, 0, 3, 16, 17, 16, 5, 0, 0, 0, 0, 0]\nclass = 17", fillcolor="#fdfafe"] ;
282 -> 283 ;
284 [label="node #284\nac <= 39.5\ngini = 0.636\nsamples = 37\nvalue = [0, 0, 0, 0, 0, 0, 0, 0, 0, 0, 0, 0, 0, 0\n0, 0, 3, 14, 17, 2, 1, 0, 0, 0, 0, 0]\nclass = 17", fillcolor="#f2e5fc"] ;
283 -> 284 ;
285 [label="node #285\nperception <= 27.5\ngini = 0.512\nsamples = 18\nvalue = [0, 0, 0, 0, 0, 0, 0, 0, 0, 0, 0, 0, 0, 0\n0, 0, 3, 12, 2, 1, 0, 0, 0, 0, 0, 0]\nclass = 16", fillcolor="#aa88ef"] ;
284 -> 285 ;
286 [label="node #286\ngini = 0.0\nsamples = 3\nvalue = [0, 0, 0, 0, 0, 0, 0, 0, 0, 0, 0, 0, 0, 0\n0, 0, 3, 0, 0, 0, 0, 0, 0, 0, 0, 0]\nclass = 15", fillcolor="#4a39e5"] ;
285 -> 286 ;
287 [label="node #287\ncha <= 7.0\ngini = 0.338\nsamples = 15\nvalue = [0, 0, 0, 0, 0, 0, 0, 0, 0, 0, 0, 0, 0, 0\n0, 0, 0, 12, 2, 1, 0, 0, 0, 0, 0, 0]\nclass = 16", fillcolor="#9367eb"] ;
285 -> 287 ;
288 [label="node #288\nstr <= 9.5\ngini = 0.142\nsamples = 13\nvalue = [0, 0, 0, 0, 0, 0, 0, 0, 0, 0, 0, 0, 0, 0\n0, 0, 0, 12, 0, 1, 0, 0, 0, 0, 0, 0]\nclass = 16", fillcolor="#7e49e7"] ;
287 -> 288 ;
289 [label="node #289\ngini = 0.0\nsamples = 12\nvalue = [0, 0, 0, 0, 0, 0, 0, 0, 0, 0, 0, 0, 0, 0\n0, 0, 0, 12, 0, 0, 0, 0, 0, 0, 0, 0]\nclass = 16", fillcolor="#7239e5"] ;
288 -> 289 ;
290 [label="node #290\ngini = 0.0\nsamples = 1\nvalue = [0, 0, 0, 0, 0, 0, 0, 0, 0, 0, 0, 0, 0, 0\n0, 0, 0, 0, 0, 1, 0, 0, 0, 0, 0, 0]\nclass = 18", fillcolor="#c339e5"] ;
288 -> 290 ;
291 [label="node #291\ngini = 0.0\nsamples = 2\nvalue = [0, 0, 0, 0, 0, 0, 0, 0, 0, 0, 0, 0, 0, 0\n0, 0, 0, 0, 2, 0, 0, 0, 0, 0, 0, 0]\nclass = 17", fillcolor="#9a39e5"] ;
287 -> 291 ;
292 [label="node #292\nperception <= 29.0\ngini = 0.36\nsamples = 19\nvalue = [0, 0, 0, 0, 0, 0, 0, 0, 0, 0, 0, 0, 0, 0\n0, 0, 0, 2, 15, 1, 1, 0, 0, 0, 0, 0]\nclass = 17", fillcolor="#b268eb"] ;
284 -> 292 ;
293 [label="node #293\ngini = 0.0\nsamples = 2\nvalue = [0, 0, 0, 0, 0, 0, 0, 0, 0, 0, 0, 0, 0, 0\n0, 0, 0, 2, 0, 0, 0, 0, 0, 0, 0, 0]\nclass = 16", fillcolor="#7239e5"] ;
292 -> 293 ;
294 [label="node #294\nhp <= 282.5\ngini = 0.215\nsamples = 17\nvalue = [0, 0, 0, 0, 0, 0, 0, 0, 0, 0, 0, 0, 0, 0\n0, 0, 0, 0, 15, 1, 1, 0, 0, 0, 0, 0]\nclass = 17", fillcolor="#a752e8"] ;
292 -> 294 ;
295 [label="node #295\ngini = 0.0\nsamples = 1\nvalue = [0, 0, 0, 0, 0, 0, 0, 0, 0, 0, 0, 0, 0, 0\n0, 0, 0, 0, 0, 0, 1, 0, 0, 0, 0, 0]\nclass = 19", fillcolor="#e539e2"] ;
294 -> 295 ;
296 [label="node #296\ndex <= 3.5\ngini = 0.117\nsamples = 16\nvalue = [0, 0, 0, 0, 0, 0, 0, 0, 0, 0, 0, 0, 0, 0\n0, 0, 0, 0, 15, 1, 0, 0, 0, 0, 0, 0]\nclass = 17", fillcolor="#a146e7"] ;
294 -> 296 ;
297 [label="node #297\ngini = 0.0\nsamples = 1\nvalue = [0, 0, 0, 0, 0, 0, 0, 0, 0, 0, 0, 0, 0, 0\n0, 0, 0, 0, 0, 1, 0, 0, 0, 0, 0, 0]\nclass = 18", fillcolor="#c339e5"] ;
296 -> 297 ;
298 [label="node #298\ngini = 0.0\nsamples = 15\nvalue = [0, 0, 0, 0, 0, 0, 0, 0, 0, 0, 0, 0, 0, 0\n0, 0, 0, 0, 15, 0, 0, 0, 0, 0, 0, 0]\nclass = 17", fillcolor="#9a39e5"] ;
296 -> 298 ;
299 [label="node #299\nstr <= 9.5\ngini = 0.46\nsamples = 20\nvalue = [0, 0, 0, 0, 0, 0, 0, 0, 0, 0, 0, 0, 0, 0\n0, 0, 0, 2, 0, 14, 4, 0, 0, 0, 0, 0]\nclass = 18", fillcolor="#da83ef"] ;
283 -> 299 ;
300 [label="node #300\nfort <= 30.5\ngini = 0.304\nsamples = 17\nvalue = [0, 0, 0, 0, 0, 0, 0, 0, 0, 0, 0, 0, 0, 0\n0, 0, 0, 2, 0, 14, 1, 0, 0, 0, 0, 0]\nclass = 18", fillcolor="#cf61ea"] ;
299 -> 300 ;
301 [label="node #301\nwis <= 6.0\ngini = 0.444\nsamples = 3\nvalue = [0, 0, 0, 0, 0, 0, 0, 0, 0, 0, 0, 0, 0, 0\n0, 0, 0, 2, 0, 1, 0, 0, 0, 0, 0, 0]\nclass = 16", fillcolor="#b89cf2"] ;
300 -> 301 ;
302 [label="node #302\ngini = 0.0\nsamples = 2\nvalue = [0, 0, 0, 0, 0, 0, 0, 0, 0, 0, 0, 0, 0, 0\n0, 0, 0, 2, 0, 0, 0, 0, 0, 0, 0, 0]\nclass = 16", fillcolor="#7239e5"] ;
301 -> 302 ;
303 [label="node #303\ngini = 0.0\nsamples = 1\nvalue = [0, 0, 0, 0, 0, 0, 0, 0, 0, 0, 0, 0, 0, 0\n0, 0, 0, 0, 0, 1, 0, 0, 0, 0, 0, 0]\nclass = 18", fillcolor="#c339e5"] ;
301 -> 303 ;
304 [label="node #304\ndex <= 8.0\ngini = 0.133\nsamples = 14\nvalue = [0, 0, 0, 0, 0, 0, 0, 0, 0, 0, 0, 0, 0, 0\n0, 0, 0, 0, 0, 13, 1, 0, 0, 0, 0, 0]\nclass = 18", fillcolor="#c848e7"] ;
300 -> 304 ;
305 [label="node #305\ngini = 0.0\nsamples = 13\nvalue = [0, 0, 0, 0, 0, 0, 0, 0, 0, 0, 0, 0, 0, 0\n0, 0, 0, 0, 0, 13, 0, 0, 0, 0, 0, 0]\nclass = 18", fillcolor="#c339e5"] ;
304 -> 305 ;
306 [label="node #306\ngini = 0.0\nsamples = 1\nvalue = [0, 0, 0, 0, 0, 0, 0, 0, 0, 0, 0, 0, 0, 0\n0, 0, 0, 0, 0, 0, 1, 0, 0, 0, 0, 0]\nclass = 19", fillcolor="#e539e2"] ;
304 -> 306 ;
307 [label="node #307\ngini = 0.0\nsamples = 3\nvalue = [0, 0, 0, 0, 0, 0, 0, 0, 0, 0, 0, 0, 0, 0\n0, 0, 0, 0, 0, 0, 3, 0, 0, 0, 0, 0]\nclass = 19", fillcolor="#e539e2"] ;
299 -> 307 ;
308 [label="node #308\nperception <= 35.5\ngini = 0.708\nsamples = 43\nvalue = [0, 0, 0, 0, 0, 0, 0, 0, 0, 0, 0, 0, 0, 0\n0, 0, 0, 0, 0, 0, 11, 19, 6, 1, 4, 2]\nclass = 20", fillcolor="#f8ceee"] ;
282 -> 308 ;
309 [label="node #309\nfort <= 37.5\ngini = 0.512\nsamples = 17\nvalue = [0, 0, 0, 0, 0, 0, 0, 0, 0, 0, 0, 0, 0, 0\n0, 0, 0, 0, 0, 0, 11, 4, 2, 0, 0, 0]\nclass = 19", fillcolor="#f194ef"] ;
308 -> 309 ;
310 [label="node #310\ndex <= 5.5\ngini = 0.391\nsamples = 15\nvalue = [0, 0, 0, 0, 0, 0, 0, 0, 0, 0, 0, 0, 0, 0\n0, 0, 0, 0, 0, 0, 11, 4, 0, 0, 0, 0]\nclass = 19", fillcolor="#ee81ed"] ;
309 -> 310 ;
311 [label="node #311\nhp <= 335.0\ngini = 0.18\nsamples = 10\nvalue = [0, 0, 0, 0, 0, 0, 0, 0, 0, 0, 0, 0, 0, 0\n0, 0, 0, 0, 0, 0, 9, 1, 0, 0, 0, 0]\nclass = 19", fillcolor="#e84fe5"] ;
310 -> 311 ;
312 [label="node #312\ngini = 0.0\nsamples = 1\nvalue = [0, 0, 0, 0, 0, 0, 0, 0, 0, 0, 0, 0, 0, 0\n0, 0, 0, 0, 0, 0, 0, 1, 0, 0, 0, 0]\nclass = 20", fillcolor="#e539ba"] ;
311 -> 312 ;
313 [label="node #313\ngini = 0.0\nsamples = 9\nvalue = [0, 0, 0, 0, 0, 0, 0, 0, 0, 0, 0, 0, 0, 0\n0, 0, 0, 0, 0, 0, 9, 0, 0, 0, 0, 0]\nclass = 19", fillcolor="#e539e2"] ;
311 -> 313 ;
314 [label="node #314\nhp <= 405.0\ngini = 0.48\nsamples = 5\nvalue = [0, 0, 0, 0, 0, 0, 0, 0, 0, 0, 0, 0, 0, 0\n0, 0, 0, 0, 0, 0, 2, 3, 0, 0, 0, 0]\nclass = 20", fillcolor="#f6bde8"] ;
310 -> 314 ;
315 [label="node #315\nfort <= 36.0\ngini = 0.444\nsamples = 3\nvalue = [0, 0, 0, 0, 0, 0, 0, 0, 0, 0, 0, 0, 0, 0\n0, 0, 0, 0, 0, 0, 2, 1, 0, 0, 0, 0]\nclass = 19", fillcolor="#f29cf0"] ;
314 -> 315 ;
316 [label="node #316\ngini = 0.0\nsamples = 2\nvalue = [0, 0, 0, 0, 0, 0, 0, 0, 0, 0, 0, 0, 0, 0\n0, 0, 0, 0, 0, 0, 2, 0, 0, 0, 0, 0]\nclass = 19", fillcolor="#e539e2"] ;
315 -> 316 ;
317 [label="node #317\ngini = 0.0\nsamples = 1\nvalue = [0, 0, 0, 0, 0, 0, 0, 0, 0, 0, 0, 0, 0, 0\n0, 0, 0, 0, 0, 0, 0, 1, 0, 0, 0, 0]\nclass = 20", fillcolor="#e539ba"] ;
315 -> 317 ;
318 [label="node #318\ngini = 0.0\nsamples = 2\nvalue = [0, 0, 0, 0, 0, 0, 0, 0, 0, 0, 0, 0, 0, 0\n0, 0, 0, 0, 0, 0, 0, 2, 0, 0, 0, 0]\nclass = 20", fillcolor="#e539ba"] ;
314 -> 318 ;
319 [label="node #319\ngini = 0.0\nsamples = 2\nvalue = [0, 0, 0, 0, 0, 0, 0, 0, 0, 0, 0, 0, 0, 0\n0, 0, 0, 0, 0, 0, 0, 0, 2, 0, 0, 0]\nclass = 21", fillcolor="#e53992"] ;
309 -> 319 ;
320 [label="node #320\nac <= 48.0\ngini = 0.612\nsamples = 26\nvalue = [0.0, 0.0, 0.0, 0.0, 0.0, 0.0, 0.0, 0.0, 0.0, 0.0\n0.0, 0.0, 0.0, 0.0, 0.0, 0.0, 0.0, 0.0, 0.0, 0.0\n0.0, 15.0, 4.0, 1.0, 4.0, 2.0]\nclass = 20", fillcolor="#f29cdc"] ;
308 -> 320 ;
321 [label="node #321\nfort <= 36.5\ngini = 0.395\nsamples = 20\nvalue = [0, 0, 0, 0, 0, 0, 0, 0, 0, 0, 0, 0, 0, 0\n0, 0, 0, 0, 0, 0, 0, 15, 4, 1, 0, 0]\nclass = 20", fillcolor="#ed77d0"] ;
320 -> 321 ;
322 [label="node #322\ngini = 0.0\nsamples = 11\nvalue = [0, 0, 0, 0, 0, 0, 0, 0, 0, 0, 0, 0, 0, 0\n0, 0, 0, 0, 0, 0, 0, 11, 0, 0, 0, 0]\nclass = 20", fillcolor="#e539ba"] ;
321 -> 322 ;
323 [label="node #323\ncha <= 5.5\ngini = 0.593\nsamples = 9\nvalue = [0, 0, 0, 0, 0, 0, 0, 0, 0, 0, 0, 0, 0, 0\n0, 0, 0, 0, 0, 0, 0, 4, 4, 1, 0, 0]\nclass = 20", fillcolor="#ffffff"] ;
321 -> 323 ;
324 [label="node #324\ngini = 0.0\nsamples = 2\nvalue = [0, 0, 0, 0, 0, 0, 0, 0, 0, 0, 0, 0, 0, 0\n0, 0, 0, 0, 0, 0, 0, 2, 0, 0, 0, 0]\nclass = 20", fillcolor="#e539ba"] ;
323 -> 324 ;
325 [label="node #325\nwill <= 34.5\ngini = 0.571\nsamples = 7\nvalue = [0, 0, 0, 0, 0, 0, 0, 0, 0, 0, 0, 0, 0, 0\n0, 0, 0, 0, 0, 0, 0, 2, 4, 1, 0, 0]\nclass = 21", fillcolor="#f5b0d3"] ;
323 -> 325 ;
326 [label="node #326\ngini = 0.0\nsamples = 2\nvalue = [0, 0, 0, 0, 0, 0, 0, 0, 0, 0, 0, 0, 0, 0\n0, 0, 0, 0, 0, 0, 0, 2, 0, 0, 0, 0]\nclass = 20", fillcolor="#e539ba"] ;
325 -> 326 ;
327 [label="node #327\nint <= 7.0\ngini = 0.32\nsamples = 5\nvalue = [0, 0, 0, 0, 0, 0, 0, 0, 0, 0, 0, 0, 0, 0\n0, 0, 0, 0, 0, 0, 0, 0, 4, 1, 0, 0]\nclass = 21", fillcolor="#ec6aad"] ;
325 -> 327 ;
328 [label="node #328\ngini = 0.0\nsamples = 4\nvalue = [0, 0, 0, 0, 0, 0, 0, 0, 0, 0, 0, 0, 0, 0\n0, 0, 0, 0, 0, 0, 0, 0, 4, 0, 0, 0]\nclass = 21", fillcolor="#e53992"] ;
327 -> 328 ;
329 [label="node #329\ngini = 0.0\nsamples = 1\nvalue = [0, 0, 0, 0, 0, 0, 0, 0, 0, 0, 0, 0, 0, 0\n0, 0, 0, 0, 0, 0, 0, 0, 0, 1, 0, 0]\nclass = 22", fillcolor="#e5396a"] ;
327 -> 329 ;
330 [label="node #330\ncon <= 10.5\ngini = 0.444\nsamples = 6\nvalue = [0, 0, 0, 0, 0, 0, 0, 0, 0, 0, 0, 0, 0, 0\n0, 0, 0, 0, 0, 0, 0, 0, 0, 0, 4, 2]\nclass = 23", fillcolor="#f29ca0"] ;
320 -> 330 ;
331 [label="node #331\ngini = 0.0\nsamples = 4\nvalue = [0, 0, 0, 0, 0, 0, 0, 0, 0, 0, 0, 0, 0, 0\n0, 0, 0, 0, 0, 0, 0, 0, 0, 0, 4, 0]\nclass = 23", fillcolor="#e53941"] ;
330 -> 331 ;
332 [label="node #332\ngini = 0.0\nsamples = 2\nvalue = [0, 0, 0, 0, 0, 0, 0, 0, 0, 0, 0, 0, 0, 0\n0, 0, 0, 0, 0, 0, 0, 0, 0, 0, 0, 2]\nclass = 24", fillcolor="#e55839"] ;
330 -> 332 ;
}